%YAML:1.0
---
opencv_ml_svm:
   format: 3
   svmType: C_SVC
   kernel:
      type: RBF
      gamma: 3.3750000000000002e-02
   C: 2.5000000000000000e+00
   term_criteria: { epsilon:1.1920928955078125e-07, iterations:1000 }
   var_count: 144
   class_count: 3
   class_labels: !!opencv-matrix
      rows: 3
      cols: 1
      dt: i
      data: [ 0, 1, 2 ]
   sv_total: 90
   support_vectors:
      - [ 4.05242771e-01, 3.25250655e-01, 4.05242771e-01, 4.05242771e-01,
          0., 0., 2.62783110e-01, 4.05242771e-01, 4.05242771e-01,
          4.87177432e-01, 2.45201010e-02, 1.00270405e-01, 1.87380269e-01,
          0., 0., 4.87177432e-01, 4.87177432e-01, 4.87177432e-01, 0., 0.,
          0., 0., 0., 0., 0., 0., 0., 0., 0., 0., 0., 0., 0., 0., 0., 0.,
          1.16852082e-01, 3.98175031e-01, 4.28494751e-01, 4.28494751e-01,
          0., 0., 4.28494751e-01, 4.28494751e-01, 2.98480928e-01,
          4.06029448e-02, 1.82326272e-01, 4.85058397e-01, 2.93926924e-01,
          0., 0., 4.85058397e-01, 4.85058397e-01, 4.09909487e-01, 0., 0.,
          0., 0., 0., 0., 0., 0., 0., 0., 0., 0., 0., 0., 0., 0., 0., 0.,
          4.07730550e-01, 4.07730550e-01, 4.07730550e-01, 1.63163453e-01,
          3.63305718e-01, 1.36616826e-01, 4.07730550e-01, 1.71933696e-01,
          3.52294505e-01, 3.87168258e-01, 1.88809797e-01, 3.83354604e-01,
          9.59424376e-02, 3.87168258e-01, 2.34138563e-01, 3.87168258e-01,
          3.87168258e-01, 3.87168258e-01, 5.91940522e-01, 2.42052302e-01,
          9.44063440e-03, 6.62292019e-02, 4.74992782e-01, 0., 0.,
          6.79653883e-02, 5.91940522e-01, 4.69491094e-01, 1.90317690e-01,
          0., 0., 2.43142232e-01, 1.35218576e-01, 4.69491094e-01,
          4.69491094e-01, 4.69491094e-01, 2.19547704e-01, 3.71744156e-01,
          5.21778345e-01, 4.86039639e-01, 5.21778345e-01, 1.95208285e-02,
          8.66520181e-02, 2.79564727e-02, 1.37778923e-01, 4.48391616e-01,
          1.47529449e-02, 1.00521132e-01, 5.38744390e-01, 5.38744390e-01,
          2.24573147e-02, 7.51141831e-02, 2.39710025e-02, 4.42753404e-01,
          4.98586148e-01, 3.41322683e-02, 3.31459455e-02, 2.32529879e-01,
          6.73910558e-01, 0., 0., 9.58393421e-03, 4.83842105e-01,
          2.19654158e-01, 2.58180704e-02, 0., 0., 4.76192713e-01,
          4.56724465e-01, 4.76192713e-01, 4.24195617e-01, 3.22910309e-01 ]
      - [ 3.86857957e-01, 1.61160409e-01, 3.86857957e-01, 3.86857957e-01,
          3.86857957e-01, 1.13903493e-01, 2.43380010e-01, 3.86857957e-01,
          3.86857957e-01, 3.36731285e-01, 5.47013171e-02, 2.23546728e-01,
          4.17010963e-01, 1.17494047e-01, 2.26084590e-01, 4.43620771e-01,
          4.43620771e-01, 4.43620771e-01, 0., 0., 0., 0., 0., 0., 0.,
          8.52314472e-01, 5.11910200e-01, 0., 0., 0., 0., 0., 0., 0., 0.,
          0., 1.12807050e-01, 2.14823067e-01, 4.69847053e-01,
          4.69847053e-01, 4.69847053e-01, 2.18858391e-01, 1.50693074e-01,
          3.41984898e-01, 2.94283688e-01, 7.33937770e-02, 3.86761390e-02,
          3.79757136e-01, 5.20379305e-01, 1.12261638e-01, 5.06887026e-02,
          1.27079576e-01, 5.20379305e-01, 5.20379305e-01, 2.63609618e-01,
          9.09019560e-02, 3.52026314e-01, 4.89823431e-01, 6.31192550e-02,
          0., 2.63945043e-01, 4.89823431e-01, 4.89823431e-01, 0., 0., 0.,
          0., 0., 0., 5.95236838e-01, 5.95236838e-01, 5.34268439e-01,
          4.96678442e-01, 4.96678442e-01, 9.10020918e-02, 4.96678442e-01,
          0., 0., 0., 0., 4.96678442e-01, 3.85939896e-01, 3.85939896e-01,
          3.49753320e-01, 3.85939896e-01, 2.95049906e-01, 1.54466495e-01,
          2.47776628e-01, 3.25132400e-01, 3.85939896e-01, 3.38372618e-01,
          3.38372618e-01, 3.38372618e-01, 2.83990979e-01, 3.38372618e-01,
          3.38372618e-01, 3.38372618e-01, 3.38372618e-01, 3.38372618e-01,
          4.08769608e-01, 3.98314863e-01, 0., 0., 3.42622995e-01,
          4.08769608e-01, 4.08769608e-01, 2.26938277e-01, 4.08769608e-01,
          4.36706841e-01, 4.36706841e-01, 4.36706841e-01, 4.36706841e-01,
          4.36706841e-01, 1.36745349e-01, 1.94923971e-02, 0.,
          1.51638329e-01, 4.10993636e-01, 4.10993636e-01, 1.98899925e-01,
          1.08095482e-01, 4.10993636e-01, 4.10993636e-01, 4.06153500e-01,
          1.04003765e-01, 3.05300117e-01, 4.28163290e-01, 3.62809122e-01,
          8.48962441e-02, 0., 4.28163290e-01, 4.28163290e-01,
          3.44675601e-01, 6.92004040e-02, 4.28163290e-01, 4.73768860e-01,
          2.16279313e-01, 0., 0., 4.73768860e-01, 4.73768860e-01,
          2.22254544e-01, 3.55835333e-02, 4.73768860e-01 ]
      - [ 3.76655221e-01, 3.76655221e-01, 3.76655221e-01, 5.61516881e-02,
          3.76655221e-01, 0., 3.76655221e-01, 3.76655221e-01,
          3.76655221e-01, 5.37580848e-01, 2.77054310e-01, 2.18421996e-01,
          0., 5.37580848e-01, 0., 5.16011715e-02, 2.28491891e-02,
          5.37580848e-01, 4.50160474e-01, 4.50160474e-01, 3.65168542e-01,
          0., 4.50160474e-01, 1.92026198e-01, 1.17479302e-01,
          3.00356299e-02, 4.50160474e-01, 3.64084631e-01, 3.64084631e-01,
          3.64084631e-01, 0., 2.61647165e-01, 3.64084631e-01,
          3.64084631e-01, 3.64084631e-01, 3.64084631e-01, 6.80475906e-02,
          1.52424306e-01, 4.30817336e-01, 4.30817336e-01, 1.99536681e-01,
          0., 4.30817336e-01, 4.30817336e-01, 4.30817336e-01,
          3.37712139e-01, 4.60582227e-02, 2.32675016e-01, 4.45224583e-01,
          4.45224583e-01, 0., 1.79845735e-01, 4.45224583e-01,
          4.45224583e-01, 1.26066983e-01, 5.13005555e-01, 5.13005555e-01,
          0., 5.13005555e-01, 9.97962952e-02, 3.90449435e-01,
          1.48122892e-01, 7.14785084e-02, 1.84426680e-01, 3.13376844e-01,
          4.06725258e-01, 0., 4.06725258e-01, 4.06725258e-01,
          4.06725258e-01, 4.06725258e-01, 1.91288963e-01, 3.00377570e-02,
          5.22223115e-02, 4.93330866e-01, 5.14182627e-01, 3.64378422e-01,
          0., 1.11741066e-01, 4.95137811e-01, 3.05052400e-01,
          3.06131393e-01, 1.48590058e-01, 3.62849683e-01, 4.24806267e-01,
          2.71563649e-01, 3.18583667e-01, 1.77982599e-01, 4.24806267e-01,
          4.24806267e-01, 3.38802308e-01, 3.82505298e-01, 3.82505298e-01,
          3.19836289e-01, 9.46576744e-02, 1.96429744e-01, 3.82505298e-01,
          3.82505298e-01, 3.82505298e-01, 4.56023030e-02, 2.98571318e-01,
          5.37039936e-01, 2.17871107e-02, 1.06896713e-01, 1.60590827e-01,
          5.37039936e-01, 5.37039936e-01, 2.20405292e-02, 0., 0.,
          1.40421882e-01, 9.85106289e-01, 0., 0., 0., 0., 0.,
          1.17092282e-01, 3.33263695e-01, 4.50803578e-01, 4.50803578e-01,
          4.50803578e-01, 3.93792719e-01, 9.40518379e-02, 2.60819674e-01,
          1.70601323e-01, 2.48070017e-01, 2.37023667e-01, 4.03524548e-01,
          4.03524548e-01, 4.03524548e-01, 2.64742613e-01, 4.03524548e-01,
          2.89272875e-01, 2.70470649e-01, 6.26261458e-02, 7.58594722e-02,
          2.01228455e-01, 4.34455633e-01, 4.34455633e-01, 4.34455633e-01,
          4.34455633e-01, 4.34455633e-01, 4.16183472e-02 ]
      - [ 4.81434166e-01, 4.81434166e-01, 4.81434166e-01, 2.60914057e-01,
          0., 0., 0., 0., 4.81434166e-01, 4.74329561e-01, 4.74329561e-01,
          1.57148063e-01, 1.53331220e-01, 1.98552102e-01, 4.74329561e-01,
          8.76308084e-02, 0., 4.74329561e-01, 4.35410589e-01,
          4.35410589e-01, 1.23188727e-01, 1.45516321e-01, 4.35410589e-01,
          4.35410589e-01, 1.06690533e-01, 2.31722067e-03, 4.35410589e-01,
          4.64817613e-01, 2.50662297e-01, 1.51045725e-01, 9.94366929e-02,
          1.25258386e-01, 4.64817613e-01, 4.64817613e-01, 1.41109049e-01,
          4.64817613e-01, 4.34330136e-01, 4.34330136e-01, 3.66197288e-01,
          7.37206265e-02, 2.66312093e-01, 4.34330136e-01, 3.71025324e-01,
          2.13974178e-01, 1.89292043e-01, 3.80961657e-01, 3.80961657e-01,
          1.32184073e-01, 2.86573648e-01, 3.80961657e-01, 3.80961657e-01,
          3.80961657e-01, 2.24711925e-01, 3.47048283e-01, 3.99070233e-01,
          3.99070233e-01, 3.99070233e-01, 9.99561995e-02, 3.99070233e-01,
          3.99070233e-01, 3.99070233e-01, 1.44601405e-01, 9.78272706e-02,
          2.06494942e-01, 4.34428543e-01, 4.34428543e-01, 7.15689883e-02,
          4.85565588e-02, 4.34428543e-01, 4.34428543e-01, 4.34428543e-01,
          4.35859896e-02, 3.32778692e-01, 3.32778692e-01, 3.32778692e-01,
          3.32778692e-01, 3.32778692e-01, 3.32778692e-01, 3.32778692e-01,
          3.32778692e-01, 3.32778692e-01, 4.18350697e-01, 4.68296036e-02,
          6.91661239e-02, 3.84270757e-01, 4.18350697e-01, 2.99887151e-01,
          2.26226136e-01, 4.18350697e-01, 4.18350697e-01, 3.08729470e-01,
          4.01939362e-01, 4.01939362e-01, 7.92167261e-02, 5.33803813e-02,
          2.89430171e-01, 4.01939362e-01, 4.01939362e-01, 4.01939362e-01,
          4.09274437e-02, 2.93805391e-01, 4.76173222e-01, 0., 0.,
          4.76173222e-01, 4.76173222e-01, 4.76173222e-01, 1.68367755e-02,
          2.16950446e-01, 6.70973584e-02, 4.31172192e-01, 5.60120702e-01,
          5.60120702e-01, 0., 6.38959780e-02, 1.73756257e-01,
          3.08518291e-01, 2.89516121e-01, 0., 1.54388100e-01,
          4.84599352e-01, 4.84599352e-01, 0., 1.89798477e-03,
          4.27774966e-01, 4.84599352e-01, 3.72786760e-01, 1.80851370e-01,
          2.75818914e-01, 3.72786760e-01, 3.72786760e-01, 2.39213243e-01,
          3.67993891e-01, 3.72786760e-01, 3.72786760e-01, 2.20023751e-01,
          1.51226714e-01, 1.32574871e-01, 9.92427245e-02, 4.67238665e-01,
          4.67238665e-01, 4.67238665e-01, 4.67238665e-01, 1.52905047e-01 ]
      - [ 4.36705351e-01, 4.36705351e-01, 3.82214785e-01, 0.,
          4.36705351e-01, 2.47473583e-01, 1.54531568e-01, 3.97518016e-02,
          4.36705351e-01, 4.34935480e-01, 4.34935480e-01, 1.44628569e-01,
          1.31538600e-01, 4.34935480e-01, 4.34935480e-01, 1.07236482e-01,
          9.57060792e-03, 4.34935480e-01, 4.32715237e-01, 4.32715237e-01,
          1.29034698e-01, 7.63902739e-02, 4.32715237e-01, 4.32715237e-01,
          1.92019045e-01, 1.04070064e-02, 4.32715237e-01, 4.29823130e-01,
          1.99395910e-01, 0., 0., 4.29823130e-01, 4.29823130e-01,
          4.29823130e-01, 1.79466173e-01, 4.29823130e-01, 3.73834342e-01,
          3.73834342e-01, 3.73834342e-01, 3.73834342e-01, 2.24073395e-01,
          1.55139863e-01, 3.73834342e-01, 3.73834342e-01, 2.88920581e-01,
          3.36815447e-01, 3.32557529e-01, 3.36815447e-01, 3.36815447e-01,
          3.36815447e-01, 3.36815447e-01, 3.03195834e-01, 3.36815447e-01,
          3.36815447e-01, 9.41583663e-02, 2.93566912e-01, 4.00047153e-01,
          9.24798697e-02, 3.72123361e-01, 4.00047153e-01, 4.00047153e-01,
          4.00047153e-01, 3.37308407e-01, 0., 0., 0., 0., 6.27390325e-01,
          6.27390325e-01, 4.36830252e-01, 1.17091648e-01, 4.43583988e-02,
          9.95805636e-02, 2.27060318e-02, 4.44953561e-01, 5.69185555e-01,
          5.17382801e-01, 0., 6.09477721e-02, 3.30072612e-01,
          2.85624087e-01, 2.84013391e-01, 1.28209338e-01, 3.74963999e-01,
          4.34804201e-01, 4.34804201e-01, 0., 4.16962840e-02,
          4.34804201e-01, 4.34804201e-01, 1.36568993e-01, 1.06366023e-01,
          2.85343498e-01, 4.34570372e-01, 4.34570372e-01, 0.,
          3.58981580e-01, 4.34570372e-01, 4.34570372e-01, 3.95109624e-01,
          0., 5.62517866e-02, 3.94625068e-01, 1.68098092e-01, 0.,
          2.74103940e-01, 5.36770284e-01, 5.36770284e-01, 0., 0., 0., 0.,
          0., 0., 0., 0., 0., 0., 0., 3.36484909e-01, 6.63383424e-01,
          6.63383424e-01, 0., 0., 0., 0., 7.89545998e-02, 0.,
          3.31723809e-01, 5.37043929e-01, 5.37043929e-01, 0., 0.,
          4.32297945e-01, 3.38597864e-01, 1.74049109e-01, 0.,
          1.43003941e-01, 3.96923929e-01, 3.96923929e-01, 3.96923929e-01,
          3.96923929e-01, 3.96923929e-01, 3.96923929e-01 ]
      - [ 4.10895437e-01, 4.10895437e-01, 4.10895437e-01, 0.,
          4.10895437e-01, 3.85614306e-01, 5.49674705e-02, 0.,
          4.10895437e-01, 4.43197459e-01, 4.43197459e-01, 1.17370496e-02,
          0., 4.43197459e-01, 4.43197459e-01, 1.15391724e-01, 0.,
          4.43197459e-01, 4.26811129e-01, 4.26811129e-01, 1.70332849e-01,
          1.47059143e-01, 4.26811129e-01, 4.26811129e-01, 1.78444758e-01,
          4.91469130e-02, 4.26811129e-01, 3.39300007e-01, 3.39300007e-01,
          3.39300007e-01, 2.74979830e-01, 3.39300007e-01, 3.39300007e-01,
          3.39300007e-01, 3.39300007e-01, 3.39300007e-01, 3.52433354e-01,
          3.52433354e-01, 3.52433354e-01, 3.52433354e-01, 3.52433354e-01,
          3.52433354e-01, 5.29600158e-02, 3.52433354e-01, 3.52433354e-01,
          4.05692309e-01, 1.81379989e-01, 9.49832648e-02, 2.69880235e-01,
          4.05692309e-01, 4.05692309e-01, 2.41370976e-01, 4.05692309e-01,
          4.05692309e-01, 3.40152413e-01, 4.33908612e-01, 4.33908612e-01,
          2.41738949e-02, 4.33908612e-01, 4.33908612e-01, 3.41730177e-01,
          9.60548073e-02, 1.62766241e-02, 2.22530827e-01, 4.34837490e-01,
          4.34837490e-01, 2.18060464e-02, 1.55781126e-02, 4.34837490e-01,
          4.34837490e-01, 4.34837490e-01, 0., 2.00621098e-01,
          1.04982510e-01, 5.28512895e-01, 5.28512895e-01, 2.83677608e-01,
          1.56663358e-01, 2.23316122e-02, 3.39826912e-01, 4.04725194e-01,
          1.96976691e-01, 5.91865890e-02, 3.85689855e-01, 4.16117758e-01,
          3.68873805e-01, 3.30615819e-01, 1.99867234e-01, 4.16117758e-01,
          4.16117758e-01, 3.58650565e-01, 3.58650565e-01, 3.58650565e-01,
          3.58650565e-01, 1.34145260e-01, 2.79302806e-01, 3.58650565e-01,
          3.58650565e-01, 3.58650565e-01, 2.04618767e-01, 4.36744541e-01,
          4.36744541e-01, 0., 0., 4.36744541e-01, 4.36744541e-01,
          4.36744541e-01, 6.27753325e-03, 0., 0., 9.09456983e-02,
          6.38014495e-01, 7.59660602e-01, 0., 0., 0., 0., 6.41821772e-02,
          7.10066333e-02, 5.11732936e-01, 5.11732936e-01, 5.11732936e-01,
          0., 0., 3.52249384e-01, 2.75747359e-01, 2.63834864e-01,
          3.42001498e-01, 3.70383888e-01, 3.70383888e-01, 3.70383888e-01,
          2.64395982e-01, 3.70383888e-01, 3.70383888e-01, 2.32162595e-01,
          1.21602856e-01, 1.98722810e-01, 1.52230710e-01, 3.11368555e-01,
          4.44425404e-01, 4.55691248e-01, 4.55691248e-01, 4.55691248e-01,
          2.38389783e-02 ]
      - [ 4.63094532e-01, 4.63094532e-01, 4.63094532e-01, 2.51298517e-01,
          4.74282429e-02, 1.21460259e-01, 1.43996954e-01, 1.91468522e-01,
          4.63094532e-01, 3.75701398e-01, 3.75701398e-01, 3.42893004e-01,
          9.04560387e-02, 3.75701398e-01, 3.75701398e-01, 3.75701398e-01,
          1.53556243e-01, 3.75701398e-01, 3.63089651e-01, 2.53521025e-01,
          3.63089651e-01, 3.63089651e-01, 3.63089651e-01, 9.62330922e-02,
          3.63089651e-01, 3.63089651e-01, 3.63089651e-01, 3.41895163e-01,
          7.50906542e-02, 3.18601012e-01, 4.22478527e-01, 2.40394875e-01,
          0., 4.22478527e-01, 4.22478527e-01, 4.22478527e-01,
          3.67460430e-01, 3.67460430e-01, 3.67460430e-01, 3.67460430e-01,
          2.00045228e-01, 1.05454668e-01, 3.67460430e-01, 3.67460430e-01,
          3.67460430e-01, 3.65900993e-01, 2.97912419e-01, 1.73842594e-01,
          2.79262871e-01, 3.80082816e-01, 3.80082816e-01, 3.80082816e-01,
          3.80082816e-01, 2.95815229e-01, 2.26148456e-01, 2.80525476e-01,
          3.88163000e-01, 3.88163000e-01, 3.88163000e-01, 4.72860225e-02,
          3.88163000e-01, 3.88163000e-01, 3.32709908e-01, 1.49347112e-01,
          2.90322214e-01, 4.31459635e-01, 4.31459635e-01, 3.23979817e-02,
          0., 4.31459635e-01, 4.31459635e-01, 3.78707319e-01,
          3.66452456e-01, 2.10611790e-01, 3.70315403e-01, 3.70315403e-01,
          3.70315403e-01, 0., 3.70315403e-01, 3.63301843e-01,
          3.70315403e-01, 4.26115602e-01, 1.82027277e-02, 1.57449871e-01,
          4.26115602e-01, 2.49284267e-01, 2.46249698e-02, 4.26115602e-01,
          4.26115602e-01, 4.26115602e-01, 4.28423643e-01, 2.75941670e-01,
          4.28423643e-01, 1.26371950e-01, 3.21054757e-01, 4.28423643e-01,
          2.49977246e-01, 6.20849803e-02, 4.28423643e-01, 3.88550043e-01,
          3.88550043e-01, 3.88550043e-01, 4.65836786e-02, 1.57871082e-01,
          3.88550043e-01, 3.88550043e-01, 2.51392603e-01, 3.88550043e-01,
          5.28018177e-02, 0., 3.88101429e-01, 6.20828867e-01,
          6.20828867e-01, 0., 5.75129837e-02, 2.00290456e-01,
          1.61584318e-01, 3.24749172e-01, 1.07033532e-02, 3.35888594e-01,
          4.79193300e-01, 4.79193300e-01, 4.16860618e-02, 2.95710415e-01,
          2.42003739e-01, 4.12086785e-01, 3.36447477e-01, 3.36447477e-01,
          3.01766604e-01, 3.36447477e-01, 3.36447477e-01, 3.36447477e-01,
          3.36447477e-01, 3.36447477e-01, 3.36447477e-01, 3.55249733e-01,
          4.26321268e-01, 2.59977758e-01, 1.35064110e-01, 4.26321268e-01,
          4.26321268e-01, 4.26321268e-01, 2.08005086e-01, 1.15943536e-01 ]
      - [ 4.73198503e-01, 4.73198503e-01, 4.73198503e-01, 3.90038379e-02,
          1.66465759e-01, 2.86745131e-01, 9.94853899e-02, 1.03135273e-01,
          4.37646151e-01, 4.31341499e-01, 2.71967411e-01, 1.96679190e-01,
          4.09830034e-01, 3.52202415e-01, 1.78168654e-01, 3.35352607e-02,
          4.31341499e-01, 4.31341499e-01, 0., 0., 3.11460942e-02,
          2.18500242e-01, 1.57501444e-01, 0., 0., 6.78126514e-01,
          6.78126514e-01, 0., 0., 0., 0., 0., 0., 0., 0., 0.,
          4.21551615e-01, 4.21551615e-01, 4.21551615e-01, 3.64645794e-02,
          5.34746014e-02, 3.89822632e-01, 4.21551615e-01, 3.58385921e-01,
          1.93546694e-02, 4.21017855e-02, 6.94199204e-02, 2.61998862e-01,
          4.01126355e-01, 4.01126355e-01, 3.75610590e-01, 4.01126355e-01,
          4.01126355e-01, 3.68869811e-01, 0., 0., 2.38978252e-01,
          5.51141679e-01, 1.61598355e-01, 0., 0., 5.51141679e-01,
          5.51141679e-01, 0., 0., 8.44971314e-02, 5.73623598e-01, 0., 0.,
          0., 5.73623598e-01, 5.73623598e-01, 1.95199028e-02,
          4.25870717e-01, 4.26928341e-01, 4.26928341e-01, 1.04742214e-01,
          0., 4.26928341e-01, 4.26928341e-01, 2.71930635e-01,
          2.80714691e-01, 2.28070375e-02, 8.26743022e-02, 3.81235421e-01,
          2.17089564e-01, 0., 4.88703966e-01, 4.88703966e-01,
          4.88703966e-01, 3.34006548e-01, 2.00541645e-01, 3.33172053e-01,
          4.93814766e-01, 2.43932549e-02, 1.14185847e-02, 1.62766443e-03,
          4.93814766e-01, 4.93814766e-01, 1.80117354e-01, 1.71602070e-01,
          3.97246897e-01, 4.53483075e-01, 3.03656552e-02, 3.29800129e-01,
          2.21686363e-01, 4.53483075e-01, 4.53483075e-01, 3.57593261e-02,
          1.01871274e-01, 5.52569926e-01, 5.52569926e-01, 5.52569926e-01,
          0., 6.93170577e-02, 2.03226089e-01, 1.43941760e-01,
          2.29303122e-01, 4.27267402e-02, 1.75635338e-01, 4.76738602e-01,
          4.76738602e-01, 0., 2.94330120e-02, 4.76738602e-01,
          4.76738602e-01, 4.49310154e-01, 4.49310154e-01, 2.58772969e-02,
          8.72554556e-02, 4.49310154e-01, 3.78259808e-01, 5.39191253e-02,
          1.83637083e-01, 4.49310154e-01, 4.08160955e-01, 2.93306440e-01,
          2.16385558e-01, 1.63899168e-01, 4.17730302e-01, 4.17730302e-01,
          3.85950327e-01, 2.00059280e-01, 3.62682968e-01 ]
      - [ 3.35523993e-01, 3.35523993e-01, 3.35523993e-01, 3.35523993e-01,
          3.35523993e-01, 3.09898019e-01, 3.35523993e-01, 3.35523993e-01,
          3.35523993e-01, 3.92272681e-01, 1.37655800e-02, 1.72900036e-01,
          4.49777454e-01, 4.49777454e-01, 2.96815019e-02, 3.82803530e-02,
          4.49777454e-01, 4.49777454e-01, 4.84276980e-01, 0.,
          1.32288158e-01, 4.84276980e-01, 1.98912784e-01, 0., 0.,
          4.84276980e-01, 4.84276980e-01, 5.64279437e-01, 0.,
          2.79156025e-02, 1.95837274e-01, 0., 0., 0., 5.64279437e-01,
          5.64279437e-01, 1.41214386e-01, 3.17300171e-01, 4.28401053e-01,
          4.28401053e-01, 2.56415993e-01, 3.41727026e-02, 4.28401053e-01,
          4.28401053e-01, 2.72163361e-01, 1.80467188e-01, 1.34217530e-01,
          4.23430026e-01, 4.23430026e-01, 4.23430026e-01, 7.14673242e-03,
          2.20616147e-01, 4.23430026e-01, 4.23430026e-01, 3.30862343e-01,
          1.06903642e-01, 4.15388018e-01, 4.15388018e-01, 4.15388018e-01,
          5.65708093e-02, 9.49514136e-02, 4.15388018e-01, 4.15388018e-01,
          4.10844564e-01, 1.46527678e-01, 2.45593265e-01, 4.10844564e-01,
          4.10844564e-01, 2.21786559e-01, 1.44754633e-01, 4.10844564e-01,
          4.10844564e-01, 1.53278649e-01, 9.95247215e-02, 4.74408925e-01,
          4.74408925e-01, 2.39424556e-01, 0., 6.54419884e-02,
          4.74408925e-01, 4.74408925e-01, 3.65381658e-01, 3.65381658e-01,
          2.37966791e-01, 3.65381658e-01, 3.65381658e-01, 3.65381658e-01,
          7.20769167e-02, 3.65381658e-01, 3.65381658e-01, 3.80241960e-01,
          3.80241960e-01, 3.80241960e-01, 8.45232010e-02, 1.45172134e-01,
          3.80241960e-01, 3.80241960e-01, 3.16983253e-01, 3.80241960e-01,
          3.64579290e-01, 3.64579290e-01, 2.48629257e-01, 3.64579290e-01,
          3.64579290e-01, 3.64579290e-01, 3.64579290e-01, 2.80155003e-01,
          2.41962418e-01, 7.54544809e-02, 0., 3.68951142e-01,
          6.16934478e-01, 6.16934478e-01, 0., 0., 2.19000548e-01,
          2.06988797e-01, 3.87660950e-01, 3.68488789e-01, 3.87660950e-01,
          3.87660950e-01, 3.87660950e-01, 3.16860735e-01, 4.51669805e-02,
          8.06061178e-02, 3.87660950e-01, 4.22395140e-01, 4.22395140e-01,
          9.93734673e-02, 1.38995513e-01, 4.22395140e-01, 4.22395140e-01,
          1.73314348e-01, 2.10854441e-01, 4.22395140e-01, 4.05546337e-01,
          4.57683086e-01, 4.41993773e-02, 1.38907760e-01, 3.87340009e-01,
          4.57683086e-01, 4.57683086e-01, 1.43778741e-01, 1.02886692e-01 ]
      - [ 3.68541420e-01, 3.68541420e-01, 3.68541420e-01, 2.94008344e-01,
          2.83034056e-01, 3.68541420e-01, 2.45726168e-01, 3.00455809e-01,
          3.68541420e-01, 4.36333418e-01, 2.92782962e-01, 2.08726093e-01,
          4.36333418e-01, 4.36333418e-01, 2.92969286e-01, 1.12377569e-01,
          7.96602517e-02, 4.36333418e-01, 4.47875887e-01, 3.41708690e-01,
          4.71730717e-02, 3.30934882e-01, 4.47875887e-01, 2.51384765e-01,
          2.95435101e-01, 1.21505484e-01, 4.47875887e-01, 3.98163736e-01,
          9.06280056e-02, 3.15898985e-01, 3.08779746e-01, 3.98163736e-01,
          0., 3.98163736e-01, 3.98163736e-01, 3.98163736e-01,
          3.69599462e-01, 3.85813922e-01, 3.85813922e-01, 1.80293441e-01,
          2.39028990e-01, 3.85813922e-01, 3.85813922e-01, 3.85813922e-01,
          1.60123318e-01, 9.89307985e-02, 6.15944751e-02, 1.55999258e-01,
          4.68535990e-01, 4.68535990e-01, 4.68535990e-01, 4.68535990e-01,
          2.61258423e-01, 1.05087511e-01, 7.29360282e-02, 3.07746921e-02,
          1.10056743e-01, 5.35049021e-01, 5.35049021e-01, 2.92193890e-01,
          5.35049021e-01, 1.70595229e-01, 5.44523932e-02, 1.70387104e-01,
          4.10304159e-01, 4.10304159e-01, 9.67621952e-02, 3.73484790e-01,
          3.59217286e-01, 4.10304159e-01, 3.97627681e-01, 1.60692766e-01,
          1.71068281e-01, 3.99179935e-01, 4.25917119e-01, 4.25917119e-01,
          1.60860613e-01, 0., 4.25917119e-01, 4.25917119e-01,
          2.35878885e-01, 4.64550704e-01, 3.60807598e-01, 6.22888422e-03,
          4.36976999e-02, 0., 0., 4.64550704e-01, 4.64550704e-01,
          4.64550704e-01, 4.74911898e-01, 4.74911898e-01, 1.99392453e-01,
          0., 1.06131352e-01, 4.74911898e-01, 2.01539904e-01,
          3.81022803e-02, 4.74911898e-01, 4.13992465e-01, 4.13992465e-01,
          3.01393956e-01, 0., 4.00776803e-01, 4.13992465e-01,
          4.13992465e-01, 1.46560013e-01, 1.93300352e-01, 1.97009429e-01,
          8.96427035e-02, 4.31227922e-01, 4.31227922e-01, 4.31227922e-01,
          0., 1.38043851e-01, 4.31227922e-01, 4.31227922e-01,
          4.35162455e-01, 2.77714461e-01, 7.31381327e-02, 4.35162455e-01,
          4.35162455e-01, 3.17232907e-01, 5.11497073e-02, 2.29041755e-01,
          4.35162455e-01, 4.35174793e-01, 4.35174793e-01, 5.47441188e-03,
          0., 4.35174793e-01, 4.35174793e-01, 2.20584467e-01,
          8.94976780e-03, 4.35174793e-01, 3.60761166e-01, 4.99515146e-01,
          3.56418230e-02, 0., 2.24349692e-01, 5.26064515e-01,
          5.26064515e-01, 7.33717531e-02, 6.78822249e-02 ]
      - [ 4.75705773e-01, 4.75705773e-01, 4.75705773e-01, 2.26996988e-01,
          0., 1.09714597e-01, 1.56392902e-02, 1.62034422e-01,
          4.75705773e-01, 4.76486206e-01, 4.76486206e-01, 1.36942789e-01,
          1.56213954e-01, 1.20657444e-01, 4.76486206e-01, 1.67126089e-01,
          3.79329175e-02, 4.76486206e-01, 3.75514030e-01, 3.75514030e-01,
          7.28735998e-02, 3.75514030e-01, 3.75514030e-01, 3.75514030e-01,
          6.21480085e-02, 3.75514030e-01, 3.75514030e-01, 4.04671490e-01,
          2.23066639e-02, 1.13603413e-01, 4.04671490e-01, 4.04671490e-01,
          0., 4.04671490e-01, 4.04671490e-01, 4.04671490e-01,
          4.94572461e-01, 4.94572461e-01, 3.58617991e-01, 4.09630463e-02,
          2.32342109e-01, 4.94572461e-01, 1.58927694e-01, 1.30959600e-01,
          1.85953364e-01, 3.78256291e-01, 3.78256291e-01, 1.49019152e-01,
          2.54097760e-01, 3.78256291e-01, 3.78256291e-01, 2.54357457e-01,
          3.59668940e-01, 3.78256291e-01, 3.74352992e-01, 7.21385330e-02,
          1.00373790e-01, 3.74352992e-01, 3.74352992e-01, 3.74352992e-01,
          3.74352992e-01, 3.74352992e-01, 3.74352992e-01, 2.00153887e-01,
          2.76676089e-01, 3.84870917e-01, 3.84870917e-01, 3.84870917e-01,
          0., 3.84870917e-01, 3.84870917e-01, 3.72713894e-01,
          3.57601374e-01, 3.57601374e-01, 3.57601374e-01, 3.57601374e-01,
          3.57601374e-01, 3.57601374e-01, 2.96411872e-01, 1.73167124e-01,
          3.33628297e-01, 3.78048629e-01, 3.78048629e-01, 4.66518737e-02,
          1.66523054e-01, 3.78048629e-01, 3.78048629e-01, 3.69612098e-01,
          3.39263737e-01, 3.78048629e-01, 3.82975280e-01, 3.82975280e-01,
          7.14732055e-03, 5.01408391e-02, 3.82975280e-01, 3.52447361e-01,
          3.82975280e-01, 3.68835181e-01, 3.82975280e-01, 3.79057378e-01,
          3.79057378e-01, 3.79057378e-01, 0., 3.79057378e-01,
          2.20464334e-01, 3.79057378e-01, 2.92406529e-01, 3.79057378e-01,
          1.91795468e-01, 1.36829421e-01, 5.44352114e-01, 5.77041090e-01,
          1.36676595e-01, 2.82285456e-02, 2.88087636e-01, 3.48187447e-01,
          2.92793810e-01, 4.10098642e-01, 2.27062389e-01, 1.16033673e-01,
          4.10098642e-01, 4.10098642e-01, 3.07759285e-01, 1.88450009e-01,
          3.57672185e-01, 4.10098642e-01, 4.32094395e-01, 4.32094395e-01,
          0., 0., 4.32094395e-01, 4.32094395e-01, 2.45891884e-01,
          4.11482789e-02, 4.32094395e-01, 4.47000474e-01, 3.18511158e-01,
          0., 0., 4.47000474e-01, 4.47000474e-01, 4.47000474e-01,
          1.68250591e-01, 2.57952780e-01 ]
      - [ 3.91598076e-01, 2.75669485e-01, 3.91598076e-01, 0.,
          3.91598076e-01, 0., 3.91598076e-01, 3.91598076e-01,
          3.91598076e-01, 0., 0., 0., 0., 0., 0., 7.04615593e-01,
          7.04615593e-01, 0., 0., 0., 0., 0., 0., 0., 0., 0., 0., 0., 0.,
          0., 0., 0., 0., 0., 0., 0., 3.89037669e-01, 2.96667695e-01,
          3.89037669e-01, 0., 3.89037669e-01, 0., 3.89037669e-01,
          3.89037669e-01, 3.89037669e-01, 0., 0., 0., 0., 0., 0.,
          7.04615593e-01, 7.04615593e-01, 0., 0., 0., 0., 0., 0., 0., 0.,
          0., 0., 0., 0., 0., 0., 0., 0., 0., 0., 0., 3.66013408e-01,
          2.42038354e-01, 3.66013408e-01, 3.66013408e-01, 3.66013408e-01,
          0., 3.66013408e-01, 3.66013408e-01, 3.66013408e-01,
          4.63333994e-01, 0., 5.07770181e-02, 3.56217772e-01,
          4.63333994e-01, 0., 8.47883597e-02, 4.63333994e-01,
          4.63333994e-01, 5.21690845e-01, 0., 2.71564908e-03,
          1.90511830e-02, 4.21824187e-01, 0., 0., 5.21690845e-01,
          5.21690845e-01, 6.40257597e-01, 0., 0., 0., 0., 0.,
          1.62407413e-01, 3.83890569e-01, 6.40257597e-01, 3.31692278e-01,
          8.98703113e-02, 4.56718832e-01, 4.56718832e-01, 4.56718832e-01,
          0., 0., 2.07792521e-01, 4.56494927e-01, 4.84011978e-01, 0.,
          1.12967372e-01, 4.84011978e-01, 4.84011978e-01, 0., 0.,
          2.12917075e-01, 4.84011978e-01, 4.85625714e-01, 0.,
          5.61946891e-02, 3.94224554e-01, 4.85625714e-01, 0., 0.,
          3.59279633e-01, 4.85625714e-01, 4.22475964e-01, 0.,
          5.73946275e-02, 4.02642488e-01, 4.22475964e-01, 3.21628660e-01,
          3.05977315e-01, 3.12793374e-01, 4.22475964e-01 ]
      - [ 5.01030147e-01, 5.01030147e-01, 4.53879535e-01, 0.,
          1.89462095e-01, 0., 0., 0., 5.01030147e-01, 4.87658083e-01,
          4.87658083e-01, 4.87658083e-01, 0., 8.44817907e-02, 0., 0.,
          1.91704571e-01, 4.87658083e-01, 5.54915309e-01, 1.34745464e-01,
          8.37542340e-02, 0., 2.09857389e-01, 0., 3.81354280e-02,
          5.54915309e-01, 5.54915309e-01, 4.21996862e-01, 0., 0., 0.,
          7.22846985e-02, 0., 5.16649723e-01, 5.21802366e-01,
          5.21802366e-01, 4.46510851e-01, 4.46510851e-01, 4.46510851e-01,
          0., 2.48696387e-01, 3.13525945e-01, 4.46510851e-01,
          1.84391052e-01, 6.24796599e-02, 3.90037328e-01, 3.90037328e-01,
          3.90037328e-01, 0., 3.90037328e-01, 3.90037328e-01,
          3.90037328e-01, 1.76072329e-01, 2.28751510e-01, 1.32193685e-01,
          1.72847629e-01, 3.97704750e-01, 3.97704750e-01, 3.97704750e-01,
          3.97704750e-01, 2.22196698e-01, 3.97704750e-01, 3.29330981e-01,
          4.05584648e-02, 1.47112533e-01, 4.28118378e-01, 3.35266501e-01,
          1.21412888e-01, 7.41386637e-02, 4.67659146e-01, 4.67659146e-01,
          4.67659146e-01, 2.07220204e-02, 4.01330084e-01, 4.01330084e-01,
          4.01330084e-01, 1.84402123e-01, 3.32143724e-01, 4.01330084e-01,
          4.01330084e-01, 2.14262709e-01, 2.74527490e-01, 2.06405342e-01,
          3.67689073e-01, 3.67689073e-01, 3.67689073e-01, 3.67689073e-01,
          2.59203523e-01, 3.67689073e-01, 3.67689073e-01, 4.22841877e-01,
          4.22841877e-01, 3.83176953e-01, 1.90775260e-01, 4.14709061e-01,
          1.95606276e-01, 1.99297458e-01, 1.61881551e-01, 4.22841877e-01,
          2.04246804e-01, 4.39293206e-01, 3.97405773e-01, 9.40817446e-02,
          3.58728915e-02, 4.39293206e-01, 4.39293206e-01, 4.39293206e-01,
          1.17947519e-01, 0., 1.79244146e-01, 5.15005529e-01,
          5.15005529e-01, 5.15005529e-01, 0., 6.49932250e-02,
          3.51515770e-01, 1.98112637e-01, 1.82272777e-01, 1.79339215e-01,
          5.12989640e-01, 5.12989640e-01, 5.12989640e-01, 0.,
          4.37935255e-03, 2.11674094e-01, 3.08530003e-01, 4.20610011e-01,
          1.69523060e-01, 2.07339488e-02, 3.64385955e-02, 7.61326730e-01,
          2.01475427e-01, 2.14975774e-01, 8.26679468e-02, 3.34265679e-01,
          5.13608046e-02, 6.60252944e-02, 0., 0., 5.07492006e-01,
          5.07492006e-01, 5.07492006e-01, 4.63845789e-01, 1.17052561e-02 ]
      - [ 5.42940080e-01, 5.42940080e-01, 0., 0., 1.00168824e-01,
          2.93085009e-01, 1.16904482e-01, 2.50422060e-02, 5.42940080e-01,
          4.66826916e-01, 4.66826916e-01, 2.39236783e-02, 0.,
          4.66826916e-01, 2.93333799e-01, 3.33611250e-01, 1.33094281e-01,
          3.54862481e-01, 3.51044118e-01, 3.27992111e-01, 2.99772829e-01,
          3.51044118e-01, 3.51044118e-01, 2.44250566e-01, 3.51044118e-01,
          3.51044118e-01, 3.51044118e-01, 2.80517042e-01, 1.97763011e-01,
          3.58637601e-01, 4.04298156e-01, 3.09373766e-01, 0.,
          4.04298156e-01, 4.04298156e-01, 4.04298156e-01, 3.74420762e-01,
          3.74420762e-01, 3.74420762e-01, 2.45534882e-01, 3.74420762e-01,
          2.80742079e-01, 3.74420762e-01, 2.19566002e-01, 3.28621387e-01,
          3.39847386e-01, 4.10118788e-01, 7.01821595e-02, 6.49816822e-03,
          4.35488850e-01, 4.35488850e-01, 4.35488850e-01, 3.53561074e-01,
          1.14154786e-01, 1.59344345e-01, 3.35087925e-01, 5.78838170e-01,
          8.98567736e-02, 5.78838170e-01, 0., 1.51518121e-01,
          2.92845279e-01, 2.63908923e-01, 6.63547218e-02, 2.89304405e-01,
          3.89018744e-01, 3.89018744e-01, 3.89018744e-01, 0.,
          3.89018744e-01, 3.89018744e-01, 3.89018744e-01, 3.15088868e-01,
          3.70473027e-01, 3.70473027e-01, 3.70473027e-01, 3.70473027e-01,
          3.70473027e-01, 3.70473027e-01, 2.34363675e-01, 1.36343703e-01,
          3.71149242e-01, 2.77025431e-01, 2.40169302e-01, 3.71149242e-01,
          3.71149242e-01, 1.88034996e-01, 3.71149242e-01, 3.71149242e-01,
          3.71149242e-01, 3.70368212e-01, 3.70368212e-01, 3.70368212e-01,
          9.26444866e-03, 3.70368212e-01, 3.14705402e-01, 3.70368212e-01,
          2.72284240e-01, 3.70368212e-01, 3.55643064e-01, 4.04576272e-01,
          4.04576272e-01, 3.37505192e-02, 2.21811980e-01, 4.04576272e-01,
          4.04576272e-01, 4.04576272e-01, 2.69618798e-02, 1.09028518e-01,
          4.28132743e-01, 4.96893972e-01, 4.96893972e-01, 4.96893972e-01,
          1.51818633e-01, 1.48324192e-01, 1.05185121e-01, 5.50329164e-02,
          1.81695268e-01, 1.47446901e-01, 4.00053889e-01, 4.00053889e-01,
          4.00053889e-01, 1.44281425e-02, 3.75267982e-01, 4.00053889e-01,
          4.00053889e-01, 3.67697030e-01, 3.67697030e-01, 3.67697030e-01,
          3.23819779e-02, 3.67697030e-01, 3.67697030e-01, 3.67697030e-01,
          2.87363231e-01, 3.18580419e-01, 3.51800948e-01, 4.32760209e-01,
          2.34390587e-01, 0., 4.32760209e-01, 4.32760209e-01,
          4.32760209e-01, 2.30393410e-01, 1.21521860e-01 ]
      - [ 5.75688422e-01, 5.75688422e-01, 0., 0., 0., 0., 0., 0.,
          5.75688422e-01, 5.58149755e-01, 5.58149755e-01, 0., 0.,
          2.38790974e-01, 5.24954572e-02, 7.48297619e-03, 0.,
          5.58149755e-01, 4.32553619e-01, 4.32553619e-01, 4.32553619e-01,
          4.80499454e-02, 3.60799342e-01, 1.89103097e-01, 2.11340621e-01,
          1.85361400e-01, 4.32553619e-01, 3.92013699e-01, 2.16610536e-01,
          2.93839246e-01, 2.52873637e-02, 3.92013699e-01, 3.24403763e-01,
          3.77155066e-01, 3.92013699e-01, 3.92013699e-01, 4.82451022e-01,
          4.82451022e-01, 2.37771258e-01, 0., 2.79017925e-01,
          4.82451022e-01, 2.88591444e-01, 9.74108875e-02, 2.64091372e-01,
          4.40235525e-01, 4.40235525e-01, 0., 0., 4.40235525e-01,
          4.40235525e-01, 1.62796959e-01, 7.94370100e-03, 4.40235525e-01,
          3.75051022e-01, 3.75051022e-01, 3.75051022e-01, 3.58489454e-01,
          3.75051022e-01, 3.75051022e-01, 2.00599492e-01, 1.12948269e-01,
          3.33802789e-01, 4.93767746e-02, 2.08485082e-01, 3.68474573e-01,
          3.68474573e-01, 3.68474573e-01, 3.68474573e-01, 3.68474573e-01,
          3.68474573e-01, 3.68474573e-01, 2.98215151e-01, 3.67880940e-01,
          3.67880940e-01, 3.67880940e-01, 5.01177125e-02, 3.04733068e-01,
          3.67880940e-01, 3.67880940e-01, 3.67880940e-01, 4.14491326e-01,
          4.83443514e-02, 6.04414344e-02, 1.91632748e-01, 4.14491326e-01,
          3.06807041e-01, 4.14491326e-01, 4.14491326e-01, 4.14491326e-01,
          4.25174803e-01, 4.25174803e-01, 4.25174803e-01, 3.48088861e-01,
          1.63216203e-01, 3.95718127e-01, 2.52005309e-01, 1.18461341e-01,
          2.67383307e-01, 2.57543236e-01, 4.07283068e-01, 4.07283068e-01,
          2.77993321e-01, 9.25898477e-02, 4.07283068e-01, 4.07283068e-01,
          4.07283068e-01, 1.19800903e-01, 1.37961060e-01, 8.55830982e-02,
          5.19253731e-01, 5.19253731e-01, 5.19253731e-01, 0.,
          1.55979991e-01, 2.58249372e-01, 2.61840880e-01, 3.17420036e-01,
          4.28893119e-02, 1.67948201e-01, 4.63734388e-01, 4.63734388e-01,
          0., 6.60915598e-02, 4.63734388e-01, 4.63734388e-01,
          4.15383101e-01, 4.15383101e-01, 6.12004623e-02, 2.64378995e-01,
          4.15383101e-01, 4.15383101e-01, 3.01057518e-01, 1.04879729e-01,
          3.61110538e-01, 2.87512004e-01, 4.42531705e-01, 8.39835778e-02,
          2.62481272e-01, 4.45372909e-01, 4.45372909e-01, 4.45372909e-01,
          2.12295383e-01, 3.10454722e-02 ]
      - [ 0., 0., 0., 0., 0., 0., 0., 0., 0., 4.42775816e-01,
          4.42775816e-01, 4.42775816e-01, 2.53111035e-01, 0.,
          2.94086576e-01, 8.49841312e-02, 2.31518686e-01, 4.42775816e-01,
          3.68975371e-01, 3.68975371e-01, 3.68975371e-01, 2.36778215e-01,
          3.68975371e-01, 3.68975371e-01, 1.67216927e-01, 3.08919638e-01,
          3.68975371e-01, 3.69283825e-01, 3.69283825e-01, 2.89625973e-01,
          1.60140038e-01, 2.63981283e-01, 3.67755145e-01, 3.69283825e-01,
          3.69283825e-01, 3.69283825e-01, 4.21792001e-01, 4.21792001e-01,
          3.58114004e-01, 0., 3.86795074e-01, 3.74752015e-01,
          9.46176648e-02, 1.86583504e-01, 4.21792001e-01, 3.61076742e-01,
          3.61076742e-01, 3.55224609e-01, 2.05253199e-01, 3.61076742e-01,
          3.61076742e-01, 3.61076742e-01, 2.63452977e-01, 3.26786876e-01,
          3.82761925e-01, 3.82761925e-01, 3.82761925e-01, 1.41620263e-01,
          3.82761925e-01, 3.82761925e-01, 3.82761925e-01, 2.83843696e-01,
          1.28500193e-01, 2.19313815e-01, 4.32606071e-01, 4.32606071e-01,
          1.50370793e-02, 1.03098236e-01, 4.32606071e-01, 4.32606071e-01,
          4.32606071e-01, 3.13802920e-02, 3.80197495e-01, 3.80197495e-01,
          3.23146135e-01, 1.01026580e-01, 3.80197495e-01, 3.80197495e-01,
          3.80197495e-01, 1.19461745e-01, 3.80197495e-01, 3.94466996e-01,
          2.60550678e-01, 7.43391961e-02, 6.74278801e-03, 3.94466996e-01,
          3.94466996e-01, 3.94466996e-01, 3.80236328e-01, 3.94466996e-01,
          3.92413437e-01, 3.92413437e-01, 3.92413437e-01, 3.92413437e-01,
          6.41675740e-02, 1.64690301e-01, 2.02261493e-01, 3.92413437e-01,
          3.92413437e-01, 2.38873556e-01, 2.18007371e-01, 4.23334986e-01,
          3.68619263e-01, 0., 1.96094796e-01, 4.23334986e-01,
          4.23334986e-01, 4.23334986e-01, 4.53648299e-01, 2.14187950e-01,
          3.05182964e-01, 4.53648299e-01, 4.53648299e-01, 1.05858587e-01,
          1.51300013e-01, 4.54034582e-02, 4.50450927e-01, 5.58128536e-01,
          0., 3.77484597e-03, 2.64818035e-02, 5.58128536e-01,
          1.09147504e-02, 1.62642505e-02, 2.42497042e-01, 5.58128536e-01,
          4.57718432e-01, 1.91041261e-01, 3.02225381e-01, 4.57718432e-01,
          4.57718432e-01, 0., 3.71499546e-03, 1.71909258e-01,
          4.57718432e-01, 2.73813009e-01, 1.33441642e-01, 3.18878829e-01,
          3.83028746e-01, 3.83028746e-01, 3.83028746e-01, 2.61063814e-01,
          3.83028746e-01, 3.83028746e-01 ]
      - [ 5.33420444e-01, 5.33420444e-01, 5.33420444e-01, 2.65336335e-01,
          0., 0., 0., 0., 2.65814751e-01, 4.51156050e-01, 4.51156050e-01,
          4.95243818e-02, 5.60214594e-02, 2.99138069e-01, 4.51156050e-01,
          2.85745829e-01, 6.78313449e-02, 4.51156050e-01, 4.30510908e-01,
          4.30510908e-01, 5.83005063e-02, 2.15537772e-01, 4.30510908e-01,
          1.34252265e-01, 3.34979072e-02, 4.30510908e-01, 4.30510908e-01,
          1.63530052e-01, 6.85995370e-02, 2.75676042e-01, 4.87081826e-01,
          4.18086529e-01, 0., 3.38754877e-02, 4.87081826e-01,
          4.87081826e-01, 4.59027737e-01, 4.59027737e-01, 4.59027737e-01,
          2.58256733e-01, 1.52375624e-01, 1.08123600e-01, 3.67950797e-01,
          1.17512770e-01, 3.35399777e-01, 3.92505139e-01, 3.92505139e-01,
          3.92505139e-01, 1.78353578e-01, 2.24279687e-01, 3.57533187e-01,
          3.92505139e-01, 3.92505139e-01, 1.25841200e-01, 3.02202135e-01,
          3.71143341e-01, 3.71143341e-01, 3.71143341e-01, 3.71143341e-01,
          3.44185293e-01, 3.71143341e-01, 2.88769156e-01, 1.19907640e-01,
          2.12612376e-01, 3.61631125e-01, 3.61631125e-01, 2.85541773e-01,
          3.61631125e-01, 2.91524380e-01, 3.61631125e-01, 3.61631125e-01,
          3.61631125e-01, 3.69695336e-01, 4.13549989e-01, 4.13549989e-01,
          4.13549989e-01, 6.02972806e-02, 1.28093377e-01, 4.13549989e-01,
          2.88017333e-01, 2.68518537e-01, 2.44011492e-01, 3.90696138e-01,
          4.62153524e-01, 1.20071419e-01, 1.31606266e-01, 7.94467852e-02,
          4.62153524e-01, 4.62153524e-01, 3.23097259e-01, 3.88651609e-01,
          3.88651609e-01, 3.88651609e-01, 0., 2.72612989e-01,
          3.67373347e-01, 3.88651609e-01, 1.77723616e-01, 3.88651609e-01,
          4.25947338e-01, 4.25947338e-01, 2.84329474e-01, 0.,
          3.07505816e-01, 4.25947338e-01, 4.25947338e-01, 2.51689225e-01,
          1.76833272e-01, 1.52541429e-01, 4.59804356e-01, 4.92938042e-01,
          4.92938042e-01, 4.92938042e-01, 0., 1.51299387e-01,
          8.15064013e-02, 4.34660241e-02, 3.53042573e-01, 3.11482847e-01,
          3.89827549e-01, 3.89827549e-01, 3.89827549e-01, 4.50867079e-02,
          3.89827549e-01, 2.64710724e-01, 3.07373285e-01, 3.82761091e-01,
          3.27713698e-01, 3.81016880e-01, 6.74621761e-02, 3.82761091e-01,
          3.82761091e-01, 3.82761091e-01, 8.07755664e-02, 3.82761091e-01,
          2.81377763e-01, 2.28483751e-01, 4.05463316e-02, 0.,
          5.26373565e-01, 5.26373565e-01, 5.26373565e-01, 8.56083855e-02,
          1.52265340e-01 ]
      - [ 5.78512192e-01, 5.69974244e-01, 0., 0., 0., 0., 0., 0.,
          5.78512192e-01, 5.46448171e-01, 5.46448171e-01, 1.74394265e-01,
          0., 2.55152106e-01, 5.60922660e-02, 7.99568370e-03, 0.,
          5.46448171e-01, 4.22176898e-01, 4.22176898e-01, 4.22176898e-01,
          0., 3.07244360e-01, 2.32772470e-01, 3.02661955e-01,
          2.06550553e-01, 4.22176898e-01, 4.41052496e-01, 3.76614541e-01,
          3.65563147e-02, 0., 5.77181019e-02, 2.66418815e-01,
          4.41052496e-01, 4.41052496e-01, 4.41052496e-01, 4.60306495e-01,
          4.60306495e-01, 4.60306495e-01, 0., 2.23617926e-01,
          3.87884706e-01, 3.58798802e-01, 1.01169236e-01, 1.42565191e-01,
          4.30512756e-01, 4.30512756e-01, 3.31190303e-02, 0.,
          4.30512756e-01, 4.30512756e-01, 2.58480936e-01, 3.29261310e-02,
          4.30512756e-01, 3.91854584e-01, 3.91854584e-01, 3.91854584e-01,
          0., 3.91854584e-01, 3.91854584e-01, 3.91854584e-01,
          1.65832609e-01, 2.17450827e-01, 1.08759597e-01, 2.71835148e-01,
          3.38166296e-01, 0., 1.08791128e-01, 5.10582626e-01,
          5.10582626e-01, 5.10582626e-01, 3.00359204e-02, 2.47409299e-01,
          3.99153560e-01, 3.99153560e-01, 3.99153560e-01, 1.68483123e-01,
          2.18416855e-01, 3.99153560e-01, 3.99153560e-01, 2.49180183e-01,
          3.52001876e-01, 1.97195828e-01, 3.52001876e-01, 3.52001876e-01,
          3.52001876e-01, 3.52001876e-01, 3.00432652e-01, 3.52001876e-01,
          3.52001876e-01, 3.83866757e-01, 3.83866757e-01, 3.83866757e-01,
          0., 1.66929409e-01, 2.90133566e-01, 3.83866757e-01,
          3.83866757e-01, 3.83866757e-01, 4.29319620e-01, 1.52743787e-01,
          2.25254700e-01, 0., 8.02483317e-03, 4.29319620e-01,
          4.29319620e-01, 4.29319620e-01, 4.29319620e-01, 4.97967079e-02,
          3.37497264e-01, 5.12191534e-01, 5.12191534e-01, 5.12191534e-01,
          0., 0., 2.34709129e-01, 1.90765783e-01, 3.23466420e-01,
          1.14442527e-01, 4.29341704e-01, 5.00503361e-01, 5.00503361e-01,
          0., 0., 1.47987321e-01, 4.12349313e-01, 3.53841126e-01,
          6.82109818e-02, 3.02213907e-01, 5.16097367e-01, 5.16097367e-01,
          0., 1.57473788e-01, 1.78262323e-01, 4.29380685e-01,
          3.81264716e-01, 4.31436300e-03, 2.89306603e-02, 1.12158127e-01,
          4.09173489e-01, 4.09173489e-01, 4.09173489e-01, 4.09173489e-01,
          4.09173489e-01 ]
      - [ 0., 0., 0., 0., 0., 0., 0., 0., 0., 5.63243747e-01,
          5.63243747e-01, 0., 0., 1.76741436e-01, 1.05736375e-01,
          1.50722135e-02, 0., 5.63243747e-01, 4.58670765e-01,
          4.58670765e-01, 3.04535747e-01, 1.12265989e-01, 1.80358782e-01,
          4.58670765e-01, 2.73167342e-01, 5.62342033e-02, 3.85518312e-01,
          4.05297190e-01, 4.05297190e-01, 3.92550498e-01, 1.41012475e-01,
          1.64136112e-01, 1.22043438e-01, 4.05297190e-01, 4.05297190e-01,
          3.50816607e-01, 5.58221161e-01, 5.58221161e-01, 0., 0.,
          1.08299866e-01, 4.50926512e-01, 6.42774180e-02, 0.,
          3.89883101e-01, 4.87134904e-01, 4.87134904e-01, 0., 0.,
          3.79269570e-01, 4.87134904e-01, 1.98524922e-01, 0.,
          3.16189349e-01, 4.15730536e-01, 4.15730536e-01, 4.15730536e-01,
          4.47589420e-02, 4.15730536e-01, 4.15730536e-01, 3.08765024e-01,
          2.24198215e-02, 1.83972344e-01, 2.17767432e-02, 4.52812254e-01,
          4.52812254e-01, 7.85938129e-02, 3.14335786e-02, 4.09485400e-01,
          4.52812254e-01, 4.52812254e-01, 1.89536496e-03, 3.92212570e-01,
          3.92212570e-01, 3.86355132e-01, 3.92212570e-01, 1.35879427e-01,
          3.92212570e-01, 3.55997264e-01, 1.80382669e-01, 2.31847942e-01,
          4.08360958e-01, 3.90549541e-01, 8.85715410e-02, 1.20822238e-02,
          4.08360958e-01, 4.08360958e-01, 4.08360958e-01, 9.10833031e-02,
          4.00087237e-01, 4.26255196e-01, 4.26255196e-01, 4.26255196e-01,
          0., 1.35310084e-01, 3.98914129e-01, 7.82008171e-02,
          2.92252183e-01, 4.26255196e-01, 9.36351344e-02, 4.43629593e-01,
          4.43629593e-01, 0., 0., 4.43629593e-01, 4.43629593e-01,
          4.43629593e-01, 5.25831170e-02, 1.51447639e-01, 2.09953144e-01,
          4.59961504e-01, 4.59961504e-01, 4.59961504e-01, 2.35297546e-01,
          3.06760997e-01, 2.90915668e-01, 2.44123131e-01, 4.05095309e-01,
          1.91833302e-01, 4.05095309e-01, 4.05095309e-01, 4.05095309e-01,
          4.34451737e-02, 3.42297673e-01, 1.39953256e-01, 4.05095309e-01,
          4.27132428e-01, 2.65606970e-01, 1.76355109e-01, 4.27132428e-01,
          4.27132428e-01, 0., 2.95170359e-02, 4.04283881e-01,
          4.27132428e-01, 3.38533223e-01, 3.87320727e-01, 1.15935765e-01,
          8.91041905e-02, 3.87320727e-01, 3.31750304e-01, 3.87320727e-01,
          3.87320727e-01, 3.87320727e-01 ]
      - [ 4.48775381e-01, 4.48775381e-01, 1.27664328e-01, 0.,
          4.04878467e-01, 4.48775381e-01, 9.84646156e-02, 0.,
          4.48775381e-01, 4.29404020e-01, 4.29404020e-01, 2.26326451e-01,
          0., 4.29404020e-01, 4.29404020e-01, 1.50159121e-01, 0.,
          4.29404020e-01, 4.45584923e-01, 2.11306587e-01, 3.40467662e-01,
          1.13214239e-01, 4.45584923e-01, 4.45584923e-01, 8.69640782e-02,
          1.42886654e-01, 4.45584923e-01, 3.47987831e-01, 2.68588275e-01,
          3.56251210e-01, 2.21488446e-01, 3.45794439e-01, 3.56251210e-01,
          3.56251210e-01, 3.56251210e-01, 3.56251210e-01, 3.71746749e-01,
          3.71746749e-01, 3.71746749e-01, 6.63382635e-02, 3.71746749e-01,
          3.71746749e-01, 3.71746749e-01, 3.64840597e-01, 1.72054723e-01,
          3.14541012e-01, 2.71174431e-01, 0., 0., 5.46803176e-01,
          5.46803176e-01, 4.19872433e-01, 1.13479584e-01, 1.86842516e-01,
          4.46554506e-03, 5.45209587e-01, 5.45209587e-01, 4.69887331e-02,
          5.45209587e-01, 3.13918203e-01, 4.47475389e-02, 0.,
          4.46554506e-03, 0., 4.51746523e-01, 4.51746523e-01,
          1.92467589e-02, 1.56249600e-02, 4.51746523e-01, 4.51746523e-01,
          4.22449261e-01, 1.04898550e-02, 2.61502415e-01, 2.32322127e-01,
          3.81625980e-01, 3.81625980e-01, 3.81625980e-01, 0.,
          3.81625980e-01, 3.81625980e-01, 3.81625980e-01, 4.22054529e-01,
          8.70120376e-02, 3.93754512e-01, 4.22054529e-01, 2.89961755e-01,
          0., 1.91238731e-01, 4.22054529e-01, 4.22054529e-01,
          4.04862940e-01, 4.04862940e-01, 4.04862940e-01, 1.07017942e-01,
          1.31652892e-01, 3.63449812e-01, 1.24516137e-01, 4.04862940e-01,
          4.04862940e-01, 3.29358757e-01, 4.21257585e-01, 4.21257585e-01,
          0., 0., 4.21257585e-01, 4.21257585e-01, 4.21257585e-01,
          4.99072438e-03, 7.07286969e-02, 2.23608613e-01, 5.14138639e-01,
          5.14138639e-01, 5.14138639e-01, 0., 3.00495356e-01,
          1.99044049e-01, 1.30116537e-01, 2.52986014e-01, 2.13559773e-02,
          3.05559933e-01, 4.57545042e-01, 4.57545042e-01, 0.,
          1.46616297e-02, 4.57545042e-01, 4.57545042e-01, 4.00115788e-01,
          3.79032463e-01, 9.35215279e-02, 2.40016580e-01, 4.00115788e-01,
          4.00115788e-01, 7.94408470e-02, 3.73231381e-01, 4.00115788e-01,
          2.78284281e-01, 4.67250496e-01, 1.70764774e-01, 0.,
          4.60535288e-01, 4.67250496e-01, 4.67250496e-01, 1.46102861e-01,
          1.79547761e-02 ]
      - [ 3.92298788e-01, 3.92298788e-01, 1.30947500e-01, 1.88188300e-01,
          3.92298788e-01, 3.92298788e-01, 3.92298788e-01, 1.41876295e-01,
          3.92298788e-01, 4.81956452e-01, 2.21696258e-01, 0., 0.,
          4.81956452e-01, 4.81956452e-01, 1.29859909e-01, 6.73727365e-03,
          4.81956452e-01, 5.14281452e-01, 1.96780503e-01, 2.88964435e-02,
          2.02718213e-01, 5.14281452e-01, 0., 0., 3.47498834e-01,
          5.14281452e-01, 4.57761914e-01, 0., 8.89643431e-02,
          4.57761914e-01, 4.57761914e-01, 2.27481559e-01, 1.86421096e-01,
          2.50656128e-01, 4.57761914e-01, 3.58643979e-01, 3.48084718e-01,
          3.58643979e-01, 3.07598650e-01, 3.58643979e-01, 1.04827076e-01,
          3.58643979e-01, 3.58643979e-01, 3.55697334e-01, 2.19721243e-01,
          0., 0., 0., 4.78446573e-01, 4.78446573e-01, 4.78446573e-01,
          4.60361779e-01, 2.19721243e-01, 0., 0., 6.55852705e-02,
          4.60102528e-01, 8.80465150e-01, 0., 0., 0., 0., 0., 0.,
          8.81409273e-02, 6.18338048e-01, 7.33925343e-01, 2.25376084e-01,
          1.11460723e-01, 2.64448132e-02, 0., 1.92412306e-02,
          4.98567969e-01, 4.98567969e-01, 0., 0., 0., 4.98567969e-01,
          4.98567969e-01, 1.92412306e-02, 1.29905669e-02, 0., 0., 0., 0.,
          0., 7.04496324e-01, 7.04496324e-01, 1.29905669e-02, 0., 0., 0.,
          0., 0., 0., 0., 0., 0., 0., 0., 0., 0., 0., 0., 0., 0., 0., 0.,
          4.55143452e-01, 4.55143452e-01, 0., 4.55143452e-01, 0.,
          4.55143452e-01, 4.08450246e-01, 0., 0., 0., 0., 0.,
          5.75688422e-01, 0., 5.75688422e-01, 5.75688422e-01, 0., 0., 0.,
          0., 0., 0., 0., 0., 0., 0., 0., 0., 0., 0., 0., 0., 0., 0., 0. ]
      - [ 5.31921744e-01, 5.31921744e-01, 5.31921744e-01, 0., 0., 0., 0.,
          0., 3.81923914e-01, 4.27759171e-01, 4.27759171e-01,
          4.13093656e-01, 0., 2.74334043e-01, 4.27759171e-01,
          1.32431075e-01, 1.92830879e-02, 4.27759171e-01, 4.40571994e-01,
          4.40571994e-01, 0., 0., 4.40571994e-01, 4.40571994e-01,
          1.58367053e-01, 8.90144962e-04, 4.40571994e-01, 4.19537753e-01,
          4.19537753e-01, 0., 0., 4.19537753e-01, 4.19537753e-01,
          3.36959124e-01, 4.69878390e-02, 4.19537753e-01, 8.76534507e-02,
          7.01618016e-01, 7.01618016e-01, 0., 0., 0., 0., 0.,
          2.78804395e-02, 2.41608053e-01, 4.32530880e-01, 4.32530880e-01,
          0., 1.20374434e-01, 4.32530880e-01, 4.32530880e-01,
          3.89293313e-01, 1.51439220e-01, 2.93744296e-01, 2.02186614e-01,
          0., 0., 5.14980674e-01, 5.14980674e-01, 5.14980674e-01,
          2.05879092e-01, 1.72308698e-01, 2.27577761e-02, 0., 0., 0.,
          6.85607195e-01, 6.85607195e-01, 2.28047043e-01, 0.,
          2.27577761e-02, 4.38822240e-01, 4.38822240e-01, 4.38822240e-01,
          0., 2.85102457e-01, 3.08330268e-01, 1.50084928e-01,
          1.62727773e-01, 4.38822240e-01, 2.31198356e-01, 4.02444899e-01,
          4.02444899e-01, 0., 4.02444899e-01, 4.02444899e-01,
          4.02444899e-01, 3.30531567e-01, 1.53187096e-01, 0., 0., 0., 0.,
          0., 5.75688422e-01, 5.75688422e-01, 5.75688422e-01, 0., 0., 0.,
          0., 0., 0., 0., 0., 0., 0., 3.98010433e-01, 3.98010433e-01,
          2.16485798e-01, 2.52878070e-01, 3.98010433e-01, 3.98010433e-01,
          1.75304681e-01, 2.49834284e-01, 3.98010433e-01, 4.47017163e-01,
          4.50377703e-01, 2.88082249e-02, 0., 3.54467154e-01,
          4.50377703e-01, 4.50377703e-01, 1.80051565e-01, 1.68111026e-01,
          0., 0., 0., 0., 0., 9.81029928e-01, 1.39841110e-01, 0., 0., 0.,
          0., 0., 0., 0., 0., 0., 0., 0. ]
      - [ 4.31398153e-01, 4.31398153e-01, 4.31398153e-01, 0.,
          2.46074617e-01, 4.31398153e-01, 6.79425597e-02, 0.,
          4.31398153e-01, 4.21730727e-01, 4.21730727e-01, 2.69117981e-01,
          3.87540050e-02, 4.21730727e-01, 4.21730727e-01, 1.76678762e-01,
          3.68951075e-02, 4.21730727e-01, 3.94552410e-01, 3.94552410e-01,
          1.13562398e-01, 1.38299018e-01, 3.94552410e-01, 3.94552410e-01,
          3.94552410e-01, 1.73222095e-01, 3.94552410e-01, 3.82980406e-01,
          3.67447317e-01, 3.53617556e-02, 2.48074546e-01, 3.82980406e-01,
          3.82980406e-01, 3.82980406e-01, 2.54941344e-01, 3.82980406e-01,
          3.59275192e-01, 3.59275192e-01, 3.59275192e-01, 3.59275192e-01,
          2.89203167e-01, 3.59275192e-01, 3.59275192e-01, 3.20901603e-01,
          1.87941641e-01, 3.36260140e-01, 3.03435594e-01, 3.36260140e-01,
          3.36260140e-01, 3.36260140e-01, 3.36260140e-01, 3.36260140e-01,
          3.36260140e-01, 3.36260140e-01, 8.27759579e-02, 1.84740514e-01,
          3.97809416e-01, 3.97809416e-01, 3.47882271e-01, 2.06788287e-01,
          3.97809416e-01, 3.97809416e-01, 3.97809416e-01, 1.01218875e-02,
          2.66491361e-02, 5.72958551e-02, 1.95772409e-01, 4.58339423e-01,
          4.58339423e-01, 4.58339423e-01, 4.58339423e-01, 3.35707635e-01,
          1.01066373e-01, 1.95876256e-01, 4.67863321e-01, 4.67863321e-01,
          4.67863321e-01, 0., 3.86511087e-01, 3.10593814e-01,
          2.10231662e-01, 2.66374677e-01, 7.90480748e-02, 4.27870721e-01,
          4.27870721e-01, 4.27870721e-01, 0., 5.61711341e-02,
          4.27870721e-01, 4.27870721e-01, 2.08979398e-02, 1.87839374e-01,
          4.31825638e-01, 4.31825638e-01, 1.66129738e-01, 0.,
          4.31825638e-01, 4.31825638e-01, 4.31825638e-01, 0.,
          4.89647016e-02, 1.96929470e-01, 3.51014882e-01, 0., 0.,
          5.26549518e-01, 5.26549518e-01, 5.25207102e-01, 0., 0.,
          1.40421882e-01, 9.85106289e-01, 0., 0., 0., 0., 0., 0.,
          7.77066872e-03, 3.56017768e-01, 5.88085115e-01, 5.88085115e-01,
          0., 0., 3.59263599e-01, 2.15777993e-01, 0., 1.32419422e-01,
          4.27800089e-01, 4.27800089e-01, 4.27800089e-01, 0.,
          4.27800089e-01, 4.27800089e-01, 2.51251310e-01, 0.,
          6.22546226e-02, 2.63065070e-01, 4.62813526e-01, 4.62813526e-01,
          0., 4.62813526e-01, 4.62813526e-01, 2.55954802e-01 ]
      - [ 4.14252341e-01, 4.14252341e-01, 2.94784755e-01, 0.,
          4.14252341e-01, 4.14252341e-01, 3.81225109e-01, 7.66730681e-02,
          2.67081380e-01, 4.37148303e-01, 3.00119132e-01, 5.86547814e-02,
          4.11482900e-01, 4.37148303e-01, 3.52569401e-01, 6.09053038e-02,
          1.77462369e-01, 4.37148303e-01, 4.38784689e-01, 3.63130704e-03,
          1.77308694e-01, 4.38784689e-01, 4.38784689e-01, 0.,
          3.87976654e-02, 4.38784689e-01, 4.38784689e-01, 1.42081469e-01,
          2.07335241e-02, 1.90385938e-01, 5.23062825e-01, 1.63620323e-01,
          0., 3.00593793e-01, 5.23062825e-01, 5.23062825e-01,
          2.08318859e-01, 4.35365736e-01, 4.35365736e-01, 3.50580424e-01,
          7.13288337e-02, 2.51063764e-01, 4.35365736e-01, 4.35365736e-01,
          5.52599318e-02, 1.37954969e-02, 2.29690820e-02, 5.30564003e-02,
          3.72208327e-01, 4.88472611e-01, 4.88472611e-01, 4.88472611e-01,
          3.70449573e-01, 0., 5.96599728e-02, 8.76887590e-02,
          5.01058161e-01, 5.01058161e-01, 5.01058161e-01, 0.,
          1.09510154e-01, 3.83171916e-01, 2.67873168e-01, 1.99052930e-01,
          1.29424304e-01, 3.96880627e-01, 3.96880627e-01, 3.89988750e-01,
          0., 3.96880627e-01, 3.96880627e-01, 3.96880627e-01,
          2.57819116e-01, 3.67023259e-01, 3.67023259e-01, 3.67023259e-01,
          3.27215135e-01, 1.20650269e-01, 3.67023259e-01, 3.67023259e-01,
          3.67023259e-01, 4.33146954e-01, 4.33146954e-01, 6.82039112e-02,
          8.48954543e-02, 1.91674963e-01, 9.48342383e-02, 4.33146954e-01,
          4.33146954e-01, 4.33146954e-01, 4.49687064e-01, 4.49687064e-01,
          1.91530935e-03, 1.34365344e-02, 1.43255726e-01, 0.,
          4.49687064e-01, 4.07342553e-01, 4.49687064e-01, 3.21153611e-01,
          3.97396356e-01, 3.97396356e-01, 1.26610786e-01, 1.37686759e-01,
          2.92433947e-01, 3.97396356e-01, 3.97396356e-01, 3.75085652e-01,
          2.23270491e-01, 3.35379869e-01, 3.77280414e-01, 3.77280414e-01,
          3.77280414e-01, 3.34790289e-01, 1.60619408e-01, 3.77280414e-01,
          3.55888128e-01, 4.73061293e-01, 3.80082011e-01, 1.53561175e-01,
          3.48323703e-01, 4.73061293e-01, 5.97512610e-02, 5.35712950e-02,
          1.67634279e-01, 4.73061293e-01, 4.68344539e-01, 1.69714749e-01,
          7.32204765e-02, 4.68344539e-01, 4.68344539e-01, 5.25704287e-02,
          1.98872030e-01, 2.03611180e-01, 4.68344539e-01, 4.18393672e-01,
          2.56489456e-01, 1.83210149e-01, 0., 4.18393672e-01,
          4.18393672e-01, 4.18393672e-01, 1.45606905e-01, 4.18393672e-01 ]
      - [ 5.78795493e-01, 5.78795493e-01, 0., 0., 0., 0., 0., 0.,
          5.69396138e-01, 5.05221725e-01, 5.05221725e-01, 0., 0.,
          3.51705015e-01, 5.05221725e-01, 8.23802948e-02, 0.,
          3.14203978e-01, 3.62948924e-01, 3.62948924e-01, 1.80613980e-01,
          3.45374346e-01, 3.62948924e-01, 2.89639533e-01, 3.19246650e-01,
          3.62948924e-01, 3.62948924e-01, 8.04581195e-02, 5.92860840e-02,
          2.05733374e-01, 1.95553243e-01, 0., 0., 5.48927009e-01,
          5.48927009e-01, 5.48927009e-01, 4.93438780e-01, 4.93438780e-01,
          3.29594702e-01, 0., 1.66976571e-01, 4.93438780e-01,
          2.91641891e-01, 6.82411119e-02, 1.95961133e-01, 4.90756840e-01,
          4.90756840e-01, 5.11196163e-03, 0., 3.35259438e-01,
          4.90756840e-01, 3.71708363e-01, 2.93390211e-02, 1.45322934e-01,
          7.29587376e-02, 3.98171902e-01, 3.98171902e-01, 3.31080168e-01,
          2.60931402e-01, 3.98171902e-01, 3.98171902e-01, 3.98171902e-01,
          1.42462969e-01, 0., 2.03743339e-01, 5.53355157e-01,
          7.11498260e-02, 0., 0., 5.53355157e-01, 5.53355157e-01,
          1.71156332e-01, 3.35658520e-01, 3.35658520e-01, 3.35658520e-01,
          3.35658520e-01, 3.08728188e-01, 3.35658520e-01, 3.35658520e-01,
          3.35658520e-01, 3.35658520e-01, 4.03297871e-01, 5.17485477e-02,
          5.67541271e-02, 2.86592513e-01, 4.03297871e-01, 4.03297871e-01,
          3.07719141e-01, 4.03297871e-01, 4.03297871e-01, 3.87287706e-01,
          3.87287706e-01, 3.87287706e-01, 2.85165340e-01, 1.64007097e-01,
          2.06290768e-03, 3.87287706e-01, 3.71416569e-01, 3.87287706e-01,
          2.98066109e-01, 1.47348732e-01, 4.57755089e-01, 1.10203266e-01,
          5.95490038e-02, 0., 4.68874931e-01, 4.68874931e-01,
          4.68874931e-01, 2.26804778e-01, 1.14515843e-02, 3.59648913e-01,
          5.40378869e-01, 5.40378869e-01, 0., 5.28768562e-02,
          2.80698508e-01, 3.84809434e-01, 3.87124777e-01, 0.,
          9.19680521e-02, 5.01428783e-01, 5.01428783e-01, 0.,
          1.80717325e-03, 2.87006199e-01, 5.01428783e-01, 4.76318270e-01,
          4.65069041e-02, 2.41309479e-01, 4.76318270e-01, 4.76318270e-01,
          0., 5.21948151e-02, 1.56871617e-01, 4.76318270e-01,
          3.75845760e-01, 8.63735098e-03, 8.57328027e-02, 3.75845760e-01,
          3.75845760e-01, 3.75845760e-01, 3.75845760e-01, 3.75845760e-01,
          3.75845760e-01 ]
      - [ 4.25954819e-01, 4.25954819e-01, 4.25954819e-01, 0.,
          2.30174392e-01, 4.25954819e-01, 1.84652656e-01, 3.84775884e-02,
          4.25954819e-01, 4.44562167e-01, 4.44562167e-01, 7.42766540e-03,
          0., 4.44562167e-01, 4.44562167e-01, 8.54975134e-02,
          4.10215510e-03, 4.44562167e-01, 4.97982949e-01, 3.11033010e-01,
          2.79664844e-01, 2.04477385e-01, 4.97982949e-01, 0.,
          1.75699770e-01, 5.85665889e-02, 4.97982949e-01, 3.80805194e-01,
          2.08493054e-01, 2.30337068e-01, 3.44843894e-01, 3.80805194e-01,
          2.35988840e-01, 3.80805194e-01, 3.80805194e-01, 3.80805194e-01,
          2.33768776e-01, 3.68055105e-01, 3.68055105e-01, 3.68055105e-01,
          1.57185107e-01, 3.40673208e-01, 3.65177065e-01, 3.68055105e-01,
          3.54538113e-01, 3.98005366e-01, 7.02620968e-02, 1.14803724e-01,
          3.98005366e-01, 3.98005366e-01, 3.98005366e-01, 1.65703461e-01,
          3.98005366e-01, 3.98005366e-01, 1.85012266e-01, 3.56378615e-01,
          4.05546278e-01, 4.05546278e-01, 4.05546278e-01, 0.,
          4.05546278e-01, 3.28933567e-01, 2.62001634e-01, 1.30951509e-01,
          1.37735501e-01, 4.31766838e-01, 4.31766838e-01, 4.31766838e-01,
          8.00329819e-02, 4.31766838e-01, 4.31766838e-01, 1.45083666e-01,
          2.15193890e-02, 0., 3.73282939e-01, 5.66412389e-01,
          5.23491383e-01, 0., 0., 4.27060753e-01, 2.78017133e-01,
          2.18935594e-01, 2.82328110e-02, 3.27390939e-01, 4.53168154e-01,
          4.53168154e-01, 0., 1.34585261e-01, 4.53168154e-01,
          4.53168154e-01, 3.93393517e-01, 1.86944634e-01, 3.99335772e-01,
          3.99335772e-01, 3.99335772e-01, 0., 9.46486890e-02,
          3.99335772e-01, 3.99335772e-01, 3.78103435e-01, 3.38754684e-01,
          3.78103435e-01, 2.55323321e-01, 3.11756462e-01, 6.53822720e-02,
          3.78103435e-01, 3.78103435e-01, 3.78103435e-01, 0., 0., 0., 0.,
          0., 0., 0., 0., 0., 0., 6.17920347e-02, 4.17503923e-01,
          6.32612050e-01, 6.32612050e-01, 0., 0., 1.05551869e-01,
          6.33957088e-02, 1.91950664e-01, 6.62577599e-02, 4.02486205e-01,
          5.42106628e-01, 5.42106628e-01, 0., 0., 2.94433981e-01,
          3.41914266e-01, 1.01748675e-01, 6.21002242e-02, 2.57100046e-01,
          4.05611992e-01, 4.05611992e-01, 4.05611992e-01, 4.05611992e-01,
          4.05611992e-01, 3.05012882e-01 ]
      - [ 4.22566891e-01, 4.22566891e-01, 4.22566891e-01, 6.02982566e-02,
          4.22566891e-01, 4.22566891e-01, 1.91324249e-01, 7.33032823e-02,
          2.39480063e-01, 3.65245432e-01, 2.55773604e-01, 2.11542234e-01,
          3.65245432e-01, 3.65245432e-01, 3.65245432e-01, 2.92839974e-01,
          3.65245432e-01, 3.65245432e-01, 2.73207396e-01, 0.,
          1.01602830e-01, 5.32972753e-01, 3.73151004e-02, 0.,
          2.36938253e-01, 5.32972753e-01, 5.32972753e-01, 0., 0., 0., 0.,
          0., 0., 0., 8.52314472e-01, 5.11910200e-01, 3.66325945e-01,
          3.66325945e-01, 3.66325945e-01, 1.50419921e-02, 3.66325945e-01,
          2.92855471e-01, 3.66325945e-01, 3.24316472e-01, 3.66325945e-01,
          1.02204390e-01, 8.97400677e-02, 4.32470560e-01, 4.32470560e-01,
          4.32470560e-01, 1.84106499e-01, 2.39201963e-01, 4.32470560e-01,
          3.71409506e-01, 2.42761999e-01, 5.57076670e-02, 3.88361782e-01,
          4.50606018e-01, 3.72305959e-01, 0., 1.86784506e-01,
          4.50606018e-01, 4.50606018e-01, 1.86268181e-01, 0.,
          1.40885994e-01, 5.59333384e-01, 3.61699872e-02, 0., 0.,
          5.59333384e-01, 5.59333384e-01, 3.60415667e-01, 3.51416886e-01,
          3.65068167e-01, 2.76741117e-01, 3.65068167e-01, 0.,
          3.65068167e-01, 3.65068167e-01, 3.65068167e-01, 4.34371531e-01,
          1.51222885e-01, 4.34371531e-01, 1.66055396e-01, 4.27226126e-02,
          0., 4.34371531e-01, 4.34371531e-01, 4.34371531e-01,
          4.11080509e-01, 3.52997899e-01, 3.75218779e-01, 4.11080509e-01,
          3.52913022e-01, 1.94788221e-02, 2.77661276e-03, 3.14007044e-01,
          4.11080509e-01, 2.11594090e-01, 2.78615087e-01, 3.72938544e-01,
          3.72938544e-01, 1.99106216e-01, 3.72581005e-01, 3.72938544e-01,
          3.72938544e-01, 3.72938544e-01, 1.03214614e-01, 1.46228299e-01,
          4.73550290e-01, 4.73550290e-01, 1.53408587e-01, 0.,
          2.27162406e-01, 4.73550290e-01, 4.64055657e-01, 3.84654999e-01,
          1.17060907e-01, 3.84654999e-01, 3.84654999e-01, 3.84654999e-01,
          5.43778315e-02, 3.02886635e-01, 3.84654999e-01, 3.84654999e-01,
          4.06379759e-01, 3.01194996e-01, 1.27808526e-01, 4.06379759e-01,
          4.06379759e-01, 4.06379759e-01, 2.34267920e-01, 9.10099298e-02,
          4.06379759e-01, 3.61597270e-01, 3.11067104e-01, 8.94549787e-02,
          3.94056775e-02, 4.09498841e-01, 4.09498841e-01, 4.09498841e-01,
          3.81816983e-01, 3.31642658e-01 ]
      - [ 7.04003215e-01, 0., 0., 0., 0., 0., 0., 0., 7.04003215e-01,
          5.13874888e-01, 5.13874888e-01, 0., 0., 0., 5.13874888e-01,
          8.69256034e-02, 0., 4.41712201e-01, 4.17712301e-01,
          4.17712301e-01, 2.75356889e-01, 0., 4.17712301e-01,
          4.17712301e-01, 3.23977947e-01, 1.20602109e-01, 3.20257634e-01,
          4.05587882e-01, 4.05587882e-01, 1.22713327e-01, 0.,
          4.05587882e-01, 1.91266730e-01, 4.05587882e-01, 4.05587882e-01,
          3.48997384e-01, 4.03905243e-01, 4.03905243e-01, 4.03905243e-01,
          0., 3.40658605e-01, 2.74649173e-01, 3.73504251e-01,
          1.11451440e-01, 4.03905243e-01, 4.71880168e-01, 4.71880168e-01,
          6.43928051e-02, 0., 4.37967807e-01, 4.71880168e-01,
          2.49277085e-01, 6.94658561e-03, 2.62915790e-01, 4.17242736e-01,
          4.17242736e-01, 4.17242736e-01, 0., 3.39268714e-01,
          4.17242736e-01, 4.17242736e-01, 7.87711889e-02, 6.37681112e-02,
          1.97750300e-01, 4.33587939e-01, 4.33587939e-01, 0.,
          1.28728941e-01, 4.33587939e-01, 4.33587939e-01, 4.33587939e-01,
          0., 3.39616895e-01, 3.39616895e-01, 3.39616895e-01,
          3.39616895e-01, 2.71826535e-01, 3.39616895e-01, 3.39616895e-01,
          3.39616895e-01, 3.39616895e-01, 3.94294828e-01, 2.67078191e-01,
          2.29763731e-01, 2.18843538e-02, 3.94294828e-01, 3.94294828e-01,
          3.94294828e-01, 3.06786418e-01, 3.94294828e-01, 4.18692827e-01,
          4.18692827e-01, 4.18692827e-01, 0., 6.21897653e-02,
          4.18692827e-01, 4.18692827e-01, 1.79816574e-01, 2.88266242e-01,
          3.77138555e-01, 3.77138555e-01, 3.77138555e-01, 0.,
          2.44478770e-02, 3.77138555e-01, 3.77138555e-01, 3.77138555e-01,
          3.77138555e-01, 1.44337967e-01, 6.98024333e-02, 3.28917593e-01,
          4.70310897e-01, 4.70310897e-01, 6.03158772e-02, 2.58213490e-01,
          4.68774587e-01, 3.59114587e-01, 4.19411182e-01, 1.87384769e-01,
          4.26169068e-01, 3.65648903e-02, 4.26169068e-01, 4.40953905e-03,
          4.26169068e-01, 2.38510594e-01, 4.26169068e-01, 4.62132305e-01,
          3.51590246e-01, 3.87328655e-01, 2.53106505e-01, 4.62132305e-01,
          1.33695053e-02, 7.71093369e-02, 1.04203783e-01, 4.62132305e-01,
          3.79018337e-01, 2.19200030e-01, 2.26011783e-01, 3.79018337e-01,
          3.79018337e-01, 1.87494189e-01, 3.79018337e-01, 3.79018337e-01,
          3.79018337e-01 ]
      - [ 4.11891788e-01, 4.11891788e-01, 1.83148518e-01, 6.10785075e-02,
          2.88687140e-01, 4.11891788e-01, 4.07883644e-01, 1.74018726e-01,
          4.11891788e-01, 4.16450977e-01, 2.36710861e-01, 4.16450977e-01,
          0., 4.16450977e-01, 1.10849284e-01, 4.16450977e-01,
          2.45689124e-01, 4.16450977e-01, 4.09959137e-01, 3.35230857e-01,
          4.09959137e-01, 4.09959137e-01, 4.09959137e-01, 1.44479960e-01,
          1.37253612e-01, 5.89857325e-02, 4.09959137e-01, 3.51295561e-01,
          3.51295561e-01, 1.93024606e-01, 3.08823228e-01, 3.51295561e-01,
          3.51295561e-01, 3.51295561e-01, 3.51295561e-01, 3.51295561e-01,
          2.74219811e-01, 3.58948946e-01, 3.58948946e-01, 3.58948946e-01,
          3.58948946e-01, 2.31380075e-01, 3.58948946e-01, 3.58948946e-01,
          3.07594448e-01, 3.91856760e-01, 7.16002434e-02, 2.53199905e-01,
          3.91856760e-01, 3.91856760e-01, 7.44181722e-02, 3.91856760e-01,
          3.91856760e-01, 3.91856760e-01, 2.29389612e-02, 4.10758108e-01,
          4.10758108e-01, 4.10758108e-01, 3.00171614e-01, 4.00490500e-02,
          3.96596313e-01, 4.10758108e-01, 2.67368853e-01, 6.39503822e-03,
          1.86176702e-01, 4.01067019e-01, 3.94080549e-01, 4.01067019e-01,
          9.90147367e-02, 4.01067019e-01, 4.01067019e-01, 3.90855968e-01,
          1.66557059e-01, 1.76959887e-01, 4.81252670e-01, 4.81252670e-01,
          4.81252670e-01, 0., 2.70754963e-01, 2.91961640e-01,
          2.87706494e-01, 1.55347288e-01, 1.45233097e-02, 3.04718196e-01,
          4.68507141e-01, 4.68507141e-01, 0., 1.12952497e-02,
          4.68507141e-01, 4.68507141e-01, 2.23149776e-01, 2.58898258e-01,
          4.38904613e-01, 4.38904613e-01, 1.97193876e-01, 0.,
          2.63357401e-01, 4.38904613e-01, 4.38904613e-01, 1.00826606e-01,
          2.24631459e-01, 4.38313395e-01, 4.38313395e-01, 0., 0.,
          4.38313395e-01, 4.38313395e-01, 4.08070832e-01, 0., 0., 0., 0.,
          9.94083762e-01, 0., 0., 0., 0., 0., 0., 3.51280719e-01,
          5.79255462e-01, 5.79255462e-01, 0., 0., 3.83133590e-01,
          2.30114564e-01, 1.94229066e-01, 7.44920969e-02, 4.26369190e-01,
          4.26369190e-01, 4.26369190e-01, 8.28358829e-02, 1.91445783e-01,
          4.26369190e-01, 4.26369190e-01, 2.38044083e-01, 2.79067848e-02,
          2.24742576e-01, 3.98468047e-01, 3.98468047e-01, 3.98468047e-01,
          3.98468047e-01, 3.98468047e-01, 3.06891501e-01 ]
      - [ 3.42992038e-01, 2.66400695e-01, 3.38817120e-01, 3.42992038e-01,
          3.42992038e-01, 3.23952675e-01, 3.42992038e-01, 3.42992038e-01,
          3.42992038e-01, 4.27996486e-01, 2.21832171e-01, 4.27996486e-01,
          7.80290877e-03, 4.27996486e-01, 4.00374196e-02, 4.04801250e-01,
          2.19688803e-01, 4.27996486e-01, 5.73621511e-01, 1.91075187e-02,
          5.73225468e-02, 0., 5.73621511e-01, 0., 5.60937040e-02,
          1.86979007e-02, 5.73621511e-01, 3.62266839e-01, 3.62266839e-01,
          3.62266839e-01, 0., 3.62266839e-01, 3.62266839e-01,
          3.62266839e-01, 2.78782904e-01, 3.62266839e-01, 1.55851975e-01,
          2.57159561e-01, 4.11008418e-01, 4.11008418e-01, 4.11008418e-01,
          7.04227760e-02, 2.36377552e-01, 4.11008418e-01, 4.11008418e-01,
          3.46662253e-01, 2.60784745e-01, 1.76243588e-01, 4.00756985e-01,
          4.00756985e-01, 6.72011673e-02, 3.60292196e-01, 4.00756985e-01,
          4.00756985e-01, 4.08175200e-01, 4.08175200e-01, 4.08175200e-01,
          2.80023571e-02, 4.08175200e-01, 6.79887608e-02, 2.68925577e-01,
          3.56043607e-01, 3.53553176e-01, 3.89690995e-01, 3.89690995e-01,
          3.89690995e-01, 0., 2.29965135e-01, 3.89690995e-01,
          3.89690995e-01, 3.87761444e-01, 1.83217540e-01, 7.68341869e-02,
          3.74291539e-01, 5.15042901e-01, 5.15042901e-01, 5.15042901e-01,
          0., 0., 1.97451621e-01, 1.18591793e-01, 2.09657952e-01,
          3.00875157e-01, 3.86063397e-01, 3.86063397e-01, 3.86063397e-01,
          2.93923348e-01, 1.73335895e-01, 3.86063397e-01, 3.86063397e-01,
          2.39289954e-01, 2.45978117e-01, 4.34523076e-01, 4.34523076e-01,
          2.34179467e-01, 7.21701086e-02, 2.50209600e-01, 4.34523076e-01,
          4.34523076e-01, 2.69080132e-01, 3.81492585e-01, 3.81492585e-01,
          6.42267009e-03, 3.81492585e-01, 3.81492585e-01, 3.81492585e-01,
          3.81492585e-01, 2.24775344e-01, 0., 0., 0., 0., 0., 0., 0., 0.,
          0., 0., 5.02605960e-02, 5.70551455e-01, 6.63366199e-01,
          3.50690603e-01, 0., 0., 2.74167836e-01, 1.64668471e-01,
          1.23032771e-01, 2.46979579e-01, 4.10652220e-01, 4.10652220e-01,
          4.10652220e-01, 0., 3.46303135e-01, 4.10652220e-01,
          3.53970289e-01, 2.17420727e-01, 2.14024544e-01, 2.46087044e-01,
          3.85054022e-01, 4.68341440e-01, 0., 4.68341440e-01,
          4.68341440e-01, 1.88115031e-01 ]
      - [ 5.78512192e-01, 5.69974244e-01, 0., 0., 0., 0., 0., 0.,
          5.78512192e-01, 5.11398852e-01, 5.11398852e-01, 1.79143354e-01,
          0., 2.03034639e-01, 3.66418749e-01, 5.22312336e-02, 0.,
          5.11398852e-01, 4.68479156e-01, 4.68479156e-01, 9.84084383e-02,
          0., 2.71978468e-01, 4.68479156e-01, 2.65097141e-01,
          2.82703117e-02, 4.26814020e-01, 3.60994905e-01, 3.60994905e-01,
          3.60994905e-01, 0., 3.60994905e-01, 2.90124267e-01,
          3.60994905e-01, 3.60994905e-01, 3.60994905e-01, 5.50375104e-01,
          5.50375104e-01, 1.40628323e-01, 0., 0., 5.50375104e-01,
          2.37902090e-01, 2.45436728e-02, 9.37522203e-02, 4.28679079e-01,
          4.28679079e-01, 2.04521149e-01, 0., 4.28679079e-01,
          4.28679079e-01, 4.15873349e-01, 6.81737214e-02, 2.03045771e-01,
          4.35648590e-01, 4.35648590e-01, 3.69013786e-01, 0.,
          4.35648590e-01, 4.35648590e-01, 2.58585274e-01, 2.84457207e-03,
          1.82876438e-01, 3.81741881e-01, 3.10424298e-01, 3.81741881e-01,
          0., 3.81741881e-01, 1.59567431e-01, 3.81741881e-01,
          3.81741881e-01, 3.81741881e-01, 3.52944493e-01, 3.52944493e-01,
          3.52944493e-01, 3.52944493e-01, 1.86707184e-01, 3.52944493e-01,
          3.52944493e-01, 3.31922591e-01, 3.22525114e-01, 4.04697090e-01,
          1.43373713e-01, 4.53714430e-02, 3.18295836e-01, 4.04697090e-01,
          4.04697090e-01, 2.30502993e-01, 4.04697090e-01, 4.04697090e-01,
          4.09506857e-01, 4.09506857e-01, 4.09506857e-01, 1.31526142e-02,
          1.15840271e-01, 6.40206272e-03, 3.79205644e-01, 4.09506857e-01,
          4.09506857e-01, 2.99087375e-01, 4.74297732e-01, 4.74297732e-01,
          0., 0., 0., 4.74297732e-01, 4.74297732e-01, 7.73057938e-02,
          2.40194112e-01, 1.04119487e-01, 5.03720522e-01, 5.03720522e-01,
          5.03720522e-01, 0., 9.34959576e-02, 1.99754611e-01,
          3.41450870e-01, 4.13986117e-01, 0., 1.22492835e-01,
          4.69081968e-01, 4.69081968e-01, 0., 5.02956426e-03,
          3.85728776e-01, 4.69081968e-01, 3.59863371e-01, 3.86085421e-01,
          3.86085421e-01, 7.94645473e-02, 3.86085421e-01, 0.,
          3.86085421e-01, 3.52762938e-01, 3.73680502e-01, 3.28831434e-01,
          2.89845914e-01, 3.69109929e-01, 2.61324704e-01, 3.69109929e-01,
          2.33816773e-01, 3.69109929e-01, 3.69109929e-01, 3.69109929e-01 ]
      - [ 3.69361311e-01, 3.69361311e-01, 3.69361311e-01, 1.95373684e-01,
          3.69361311e-01, 3.12231392e-01, 3.69361311e-01, 2.05143511e-01,
          3.69361311e-01, 4.68862742e-01, 3.38716745e-01, 2.86627468e-02,
          6.36207405e-03, 4.68862742e-01, 4.30798888e-01, 1.75854564e-01,
          6.09618388e-02, 4.68862742e-01, 5.18034399e-01, 3.57272446e-01,
          1.51415661e-01, 1.63600489e-01, 5.18034399e-01, 0.,
          1.05692327e-01, 3.52307782e-02, 5.18034399e-01, 3.58838111e-01,
          3.44609320e-01, 3.05681258e-01, 1.07839614e-01, 3.58838111e-01,
          3.58838111e-01, 3.58838111e-01, 3.58838111e-01, 3.58838111e-01,
          8.13202485e-02, 3.40069413e-01, 4.20689970e-01, 4.20689970e-01,
          2.79960245e-01, 6.77749515e-02, 4.20689970e-01, 4.20689970e-01,
          2.87482321e-01, 2.67947435e-01, 6.17781170e-02, 2.90806115e-01,
          4.05615181e-01, 4.05615181e-01, 1.14668831e-01, 4.05615181e-01,
          4.05615181e-01, 4.05615181e-01, 6.76913336e-02, 4.56212580e-01,
          4.56212580e-01, 1.28551766e-01, 4.56212580e-01, 0.,
          4.56212580e-01, 3.42490345e-01, 1.56576693e-01, 0.,
          2.84079790e-01, 4.80905741e-01, 5.29394709e-02, 4.38262045e-01,
          1.60649553e-01, 4.80905741e-01, 4.80905741e-01, 0.,
          2.93282121e-02, 1.52385354e-01, 5.13039768e-01, 5.13039768e-01,
          5.13039768e-01, 0., 1.56674445e-01, 3.40158075e-01,
          2.02264354e-01, 2.49512762e-01, 1.10744990e-01, 4.02070314e-01,
          4.59482193e-01, 2.71237493e-01, 2.00802267e-01, 1.09388612e-01,
          4.59482193e-01, 4.59482193e-01, 3.02559704e-01, 3.14415038e-01,
          3.75016659e-01, 3.75016659e-01, 3.75016659e-01, 1.34744838e-01,
          2.90706873e-01, 3.75016659e-01, 3.75016659e-01, 1.86179698e-01,
          2.30644301e-01, 4.48825181e-01, 5.08488715e-02, 4.48825181e-01,
          0., 4.48825181e-01, 4.48825181e-01, 3.15111637e-01, 0., 0., 0.,
          0., 0., 0., 0., 0., 0., 1.20456479e-01, 3.35033864e-01,
          5.17831266e-01, 5.17831266e-01, 5.17831266e-01, 1.67731702e-01,
          2.39093527e-02, 1.51181489e-01, 1.09826297e-01, 1.58350646e-01,
          7.02820867e-02, 3.44868422e-01, 4.56566960e-01, 4.56566960e-01,
          9.00381878e-02, 6.76049888e-02, 4.56566960e-01, 4.56566960e-01,
          3.74849260e-01, 1.45510565e-02, 1.11622661e-01, 3.74849260e-01,
          3.74849260e-01, 3.74849260e-01, 3.74849260e-01, 3.74849260e-01,
          3.74849260e-01 ]
      - [ 5.58457196e-01, 5.58457196e-01, 1.45660669e-01, 0., 0.,
          1.49289653e-01, 1.82559296e-01, 5.37595898e-02, 5.39399683e-01,
          4.39271778e-01, 4.39271778e-01, 0., 0., 3.82526547e-01,
          4.39271778e-01, 2.58161694e-01, 1.03919819e-01, 4.39271778e-01,
          3.87424797e-01, 2.98227966e-01, 9.78428423e-02, 3.87424797e-01,
          3.87424797e-01, 3.87424797e-01, 6.98222667e-02, 3.77162248e-01,
          3.87424797e-01, 1.26933545e-01, 1.57234967e-02, 2.15451047e-01,
          5.11531293e-01, 2.62319505e-01, 0., 2.79836476e-01,
          5.11531293e-01, 5.11531293e-01, 4.07622486e-01, 4.07622486e-01,
          4.07622486e-01, 8.30199718e-02, 4.07622486e-01, 2.24652067e-01,
          2.68043786e-01, 3.25727314e-01, 3.09833705e-01, 3.67828459e-01,
          2.46609911e-01, 1.34003505e-01, 3.67828459e-01, 3.67828459e-01,
          3.67828459e-01, 3.25215638e-01, 3.67828459e-01, 3.67828459e-01,
          3.66739005e-01, 3.66739005e-01, 3.34928602e-01, 3.66739005e-01,
          3.66739005e-01, 2.25440502e-01, 1.62328750e-01, 3.66739005e-01,
          3.66739005e-01, 3.42993230e-01, 3.42993230e-01, 2.86565721e-01,
          3.42993230e-01, 3.31300944e-01, 3.42993230e-01, 3.42993230e-01,
          3.42993230e-01, 3.14367235e-01, 2.91198999e-01, 3.37607354e-01,
          3.37607354e-01, 3.37607354e-01, 3.37607354e-01, 3.37607354e-01,
          3.37607354e-01, 3.37607354e-01, 3.37607354e-01, 3.46509069e-01,
          3.46509069e-01, 3.46509069e-01, 3.46509069e-01, 3.46509069e-01,
          3.46509069e-01, 1.89709604e-01, 3.46509069e-01, 3.46509069e-01,
          3.58163685e-01, 3.58163685e-01, 2.88218856e-01, 1.24027669e-01,
          3.58163685e-01, 3.58163685e-01, 3.58163685e-01, 3.58163685e-01,
          3.58163685e-01, 3.79137516e-01, 3.79137516e-01, 1.53138548e-01,
          0., 3.79137516e-01, 3.79137516e-01, 3.79137516e-01,
          3.32098126e-01, 3.79137516e-01, 3.59003663e-01, 3.59003663e-01,
          3.59003663e-01, 3.59003663e-01, 3.59003663e-01, 3.59003663e-01,
          1.37629658e-01, 2.74382651e-01, 3.59003663e-01, 3.86249214e-01,
          4.38437223e-01, 2.21688390e-01, 6.24986142e-02, 4.85284805e-01,
          4.85284805e-01, 2.59267122e-01, 1.04484774e-01, 2.27038443e-01,
          2.01503679e-01, 2.01610461e-01, 0., 0., 8.50161076e-01,
          2.66603261e-01, 2.19377056e-01, 2.02196792e-01, 1.65544108e-01,
          2.70661175e-01, 2.22682253e-01, 0., 0., 5.53270817e-01,
          5.53270817e-01, 3.53390247e-01, 2.71130025e-01, 2.47015551e-01 ]
      - [ 4.97343063e-01, 4.97343063e-01, 3.86236548e-01, 0.,
          7.08171353e-02, 3.20685536e-01, 1.43400848e-01, 3.25628817e-02,
          4.70824212e-01, 4.30994123e-01, 4.30994123e-01, 1.34802181e-02,
          5.59878089e-02, 4.30994123e-01, 4.30994123e-01, 2.51658171e-01,
          1.63377374e-02, 4.30994123e-01, 4.38614130e-01, 1.14343405e-01,
          1.71115413e-01, 4.38614130e-01, 4.38614130e-01, 3.22157264e-01,
          4.59219813e-02, 2.78998733e-01, 4.38614130e-01, 3.74120325e-01,
          2.62339175e-01, 2.93704808e-01, 3.41908157e-01, 3.74120325e-01,
          3.36519122e-01, 2.26202786e-01, 3.74120325e-01, 3.74120325e-01,
          3.88003021e-01, 4.31145400e-01, 4.31145400e-01, 5.53370938e-02,
          9.21321195e-03, 4.31145400e-01, 4.31145400e-01, 3.12518984e-01,
          2.80385688e-02, 3.02096009e-01, 3.46370935e-01, 2.73420364e-02,
          1.05640367e-02, 3.96534085e-01, 4.93137747e-01, 4.93137747e-01,
          3.59894991e-01, 9.92341489e-02, 5.37024736e-01, 5.37024736e-01,
          3.76290046e-02, 1.45538419e-01, 2.53510982e-01, 5.37024736e-01,
          2.05927029e-01, 4.05534869e-03, 1.27558541e-02, 4.63843375e-01,
          4.93745536e-01, 1.79977372e-01, 7.65823945e-02, 1.59035206e-01,
          4.93745536e-01, 4.36217248e-01, 1.75224155e-01, 8.83792788e-02,
          6.11770004e-02, 3.75205696e-01, 4.44707155e-01, 4.44707155e-01,
          1.54587543e-02, 2.52803490e-02, 4.44707155e-01, 4.44707155e-01,
          2.43105248e-01, 4.04455185e-01, 4.04455185e-01, 6.54435754e-02,
          1.16855711e-01, 2.87101772e-02, 4.04455185e-01, 4.04455185e-01,
          3.99095356e-01, 4.04455185e-01, 5.38570762e-01, 5.38570762e-01,
          0., 0., 0., 5.38570762e-01, 3.42908025e-01, 0., 8.28279108e-02,
          2.34752119e-01, 3.90855163e-01, 0., 0., 0., 7.39976346e-01,
          4.87003833e-01, 0., 0., 8.81698504e-02, 2.96842813e-01,
          5.22501826e-01, 5.22501826e-01, 5.22501826e-01, 1.45873830e-01,
          5.92882708e-02, 1.65127620e-01, 1.66752383e-01, 2.79388547e-01,
          2.61902660e-01, 2.01441616e-01, 3.46823841e-01, 5.17960548e-01,
          5.17960548e-01, 3.12797189e-01, 9.58932564e-02, 2.09061742e-01,
          1.32651299e-01, 1.23445921e-01, 0., 0., 0., 8.14846456e-01,
          5.40032268e-01, 0., 5.85082509e-02, 0., 0., 0., 0., 0., 0., 0.,
          0., 0. ]
      - [ 4.11144733e-01, 4.11144733e-01, 4.11144733e-01, 0.,
          2.49721959e-01, 4.11144733e-01, 2.61691928e-01, 1.40886188e-01,
          4.11144733e-01, 3.64472181e-01, 3.64472181e-01, 3.64472181e-01,
          0., 3.64472181e-01, 3.64472181e-01, 3.64472181e-01,
          2.57834703e-01, 3.64472181e-01, 3.69273186e-01, 2.00001284e-01,
          3.69273186e-01, 3.69273186e-01, 3.69273186e-01, 4.20890637e-02,
          3.69273186e-01, 3.69273186e-01, 3.69273186e-01, 4.04412746e-01,
          4.47781347e-02, 2.52302408e-01, 4.04412746e-01, 1.80268094e-01,
          2.85187513e-01, 4.02828932e-01, 4.04412746e-01, 4.04412746e-01,
          3.71774256e-01, 3.71774256e-01, 3.71774256e-01, 0.,
          3.58365268e-01, 3.71774256e-01, 3.71774256e-01, 3.15665066e-01,
          2.77732134e-01, 2.35801816e-01, 3.28397572e-01, 1.20385773e-01,
          0., 4.72334474e-01, 4.72334474e-01, 4.72334474e-01,
          3.62682909e-01, 1.28466263e-01, 8.99189040e-02, 8.91748443e-02,
          5.32400548e-01, 5.32400548e-01, 5.32400548e-01, 1.81249186e-01,
          3.67357433e-02, 2.16209024e-01, 2.17594489e-01, 3.28130722e-01,
          2.46550158e-01, 3.64967316e-01, 3.64967316e-01, 3.64967316e-01,
          1.69381544e-01, 3.64967316e-01, 3.64967316e-01, 3.64967316e-01,
          2.99968630e-01, 2.87623823e-01, 3.68644863e-01, 9.06321406e-02,
          3.68644863e-01, 3.68644863e-01, 3.68644863e-01, 3.68644863e-01,
          3.68644863e-01, 0., 0., 0., 0., 0., 5.15942872e-01,
          2.94970542e-01, 5.66189706e-01, 5.66189706e-01, 4.98753130e-01,
          4.98753130e-01, 4.98753130e-01, 0., 0., 0., 0., 0.,
          4.98753130e-01, 3.92182261e-01, 3.92182261e-01, 3.92182261e-01,
          0., 3.76559228e-01, 3.92182261e-01, 3.92182261e-01,
          1.54093310e-01, 2.48003408e-01, 2.36111388e-01, 1.30288318e-01,
          4.13328946e-01, 4.13328946e-01, 4.13328946e-01, 0.,
          2.62570649e-01, 4.13328946e-01, 4.13328946e-01, 5.09949148e-01,
          4.40601893e-02, 1.55250728e-01, 1.61844745e-01, 5.09949148e-01,
          0., 1.34593800e-01, 3.80012393e-01, 5.09949148e-01,
          4.04449046e-01, 3.72624785e-01, 4.04449046e-01, 0.,
          4.04449046e-01, 8.88086259e-02, 4.04449046e-01, 1.76998168e-01,
          4.04449046e-01, 4.12617683e-01, 4.12617683e-01, 2.08415672e-01,
          0., 4.12617683e-01, 4.12617683e-01, 4.12617683e-01,
          1.38025239e-01, 2.86571592e-01 ]
      - [ 3.71393979e-01, 3.71393979e-01, 3.71393979e-01, 3.71393979e-01,
          2.16424450e-01, 3.46444994e-01, 1.93998083e-01, 3.19567114e-01,
          3.71393979e-01, 5.05372345e-01, 3.47663574e-02, 1.26014620e-01,
          1.52341843e-01, 5.05372345e-01, 2.61212438e-02, 2.97928620e-02,
          4.32299197e-01, 5.05372345e-01, 5.39856970e-01, 0.,
          4.12145182e-02, 2.89133638e-01, 5.39856970e-01, 0., 0.,
          1.87016308e-01, 5.39856970e-01, 4.45525140e-01, 0.,
          1.97188575e-02, 1.38334379e-01, 4.19624031e-01, 7.72621557e-02,
          4.45525140e-01, 4.45525140e-01, 4.45525140e-01, 2.06935983e-02,
          4.47149426e-01, 4.47149426e-01, 1.20548628e-01, 2.69458264e-01,
          6.07613958e-02, 4.47149426e-01, 4.47149426e-01, 3.23269695e-01,
          1.42637268e-01, 2.20246110e-02, 8.56207833e-02, 1.37128398e-01,
          6.16169512e-01, 1.11169163e-02, 5.19979477e-01, 4.48940963e-01,
          3.08491856e-01, 3.45330924e-01, 7.02392235e-02, 2.98937231e-01,
          5.73279440e-01, 5.73279440e-01, 0., 0., 2.10286416e-02,
          3.50690931e-01, 1.54174820e-01, 2.81718820e-01, 3.79690379e-01,
          3.79690379e-01, 3.79690379e-01, 3.48982066e-01, 3.79690379e-01,
          3.79690379e-01, 2.24630207e-01, 1.61158755e-01, 3.80242050e-01,
          3.80242050e-01, 3.80242050e-01, 3.80242050e-01, 0.,
          3.80242050e-01, 3.80242050e-01, 3.20507467e-01, 4.29400682e-01,
          1.44474030e-01, 1.83091387e-01, 7.19313547e-02, 1.26320973e-01,
          0., 4.95023459e-01, 4.95023459e-01, 4.95023459e-01,
          4.67256069e-01, 4.67256069e-01, 2.59023994e-01, 0.,
          7.99043179e-02, 4.60739106e-01, 2.10143119e-01, 1.02124557e-01,
          4.67256069e-01, 4.08716738e-01, 4.08716738e-01, 3.14926893e-01,
          0., 3.33056152e-01, 4.08716738e-01, 4.08716738e-01,
          2.52900034e-01, 2.31637508e-01, 9.45418626e-02, 3.41239512e-01,
          5.15890300e-01, 5.15890300e-01, 5.15890300e-01, 2.16212124e-01,
          8.39848816e-02, 9.65626091e-02, 8.89458731e-02, 2.21121460e-01,
          1.56847298e-01, 2.27205157e-01, 4.05770451e-01, 4.05770451e-01,
          2.42030218e-01, 3.91983569e-01, 4.05770451e-01, 4.05770451e-01,
          4.15331274e-01, 4.15331274e-01, 2.86970198e-01, 2.87057441e-02,
          4.15331274e-01, 4.15331274e-01, 3.40235949e-01, 1.31921753e-01,
          2.99183547e-01, 3.03946853e-01, 2.77329415e-01, 0., 0.,
          5.00915706e-01, 5.00915706e-01, 5.00915706e-01, 2.32549429e-01,
          1.37379587e-01 ]
      - [ 4.24786776e-01, 3.72505933e-01, 4.24786776e-01, 0.,
          2.80764401e-01, 1.88049406e-01, 4.24786776e-01, 1.45015582e-01,
          4.24786776e-01, 4.63450491e-01, 4.63450491e-01, 2.68921405e-01,
          0., 4.63450491e-01, 2.21486658e-01, 1.18376687e-01,
          2.89349407e-02, 4.63450491e-01, 4.48561162e-01, 4.48561162e-01,
          0., 0., 4.48561162e-01, 4.32311833e-01, 6.16239794e-02, 0.,
          4.48561162e-01, 4.24650013e-01, 4.24650013e-01, 0., 0.,
          4.24650013e-01, 4.24650013e-01, 2.76015967e-01, 1.33922189e-01,
          4.24650013e-01, 3.37475479e-01, 2.92422235e-01, 3.37475479e-01,
          3.37475479e-01, 3.37475479e-01, 3.37475479e-01, 3.37475479e-01,
          3.37475479e-01, 3.37475479e-01, 3.99279743e-01, 2.80743331e-01,
          2.30160415e-01, 1.66370347e-01, 3.99279743e-01, 2.46279702e-01,
          3.71739656e-01, 3.99279743e-01, 3.99279743e-01, 4.10070240e-01,
          3.04841876e-01, 4.10070240e-01, 0., 4.10070240e-01,
          4.10070240e-01, 2.73617029e-01, 7.21533671e-02, 3.87649477e-01,
          3.78714532e-01, 7.22221658e-02, 1.95748746e-01, 0.,
          4.54083413e-01, 4.54083413e-01, 4.54083413e-01, 2.22846642e-01,
          3.74526739e-01, 1.70322254e-01, 3.48970592e-01, 4.16897058e-01,
          4.16897058e-01, 4.16897058e-01, 2.32543796e-01, 1.73654482e-01,
          3.98508132e-01, 2.83892035e-01, 2.63301998e-01, 2.55788833e-01,
          3.58994335e-01, 3.58994335e-01, 3.58994335e-01, 3.30800682e-01,
          3.28395754e-01, 3.58994335e-01, 3.58994335e-01, 3.82926971e-01,
          3.82926971e-01, 3.82926971e-01, 2.99864918e-01, 7.96278790e-02,
          1.41832530e-01, 3.82926971e-01, 3.82926971e-01, 3.82926971e-01,
          1.42969564e-01, 2.64393985e-01, 5.44367254e-01, 0., 0., 0.,
          5.44367254e-01, 5.44367254e-01, 1.23338401e-01, 0., 0.,
          9.09456983e-02, 6.38014495e-01, 7.59660602e-01, 0., 0., 0., 0.,
          1.62955061e-01, 3.78495336e-01, 4.56719726e-01, 4.56719726e-01,
          4.56719726e-01, 1.99599922e-01, 1.54568836e-01, 3.00784528e-01,
          2.13642657e-01, 1.87380850e-01, 3.70662302e-01, 3.70662302e-01,
          3.70662302e-01, 3.70662302e-01, 2.67447680e-01, 3.70662302e-01,
          3.70662302e-01, 2.55565703e-01, 7.78191537e-02, 1.87858865e-01,
          2.14700192e-01, 2.79372931e-01, 5.25431037e-01, 0.,
          5.25431037e-01, 5.25431037e-01, 3.20511758e-02 ]
      - [ 5.75688422e-01, 5.75688422e-01, 0., 0., 0., 0., 0., 0.,
          5.75688422e-01, 4.56079632e-01, 4.56079632e-01, 4.56079632e-01,
          4.36100103e-02, 2.91915148e-01, 2.73448944e-01, 3.89788337e-02,
          0., 4.56079632e-01, 4.23914909e-01, 4.23914909e-01,
          1.22512646e-01, 5.25982417e-02, 2.72148877e-01, 1.55334949e-01,
          4.23914909e-01, 4.01223332e-01, 4.23914909e-01, 3.72724801e-01,
          0., 0., 0., 0., 0., 5.98405123e-01, 5.98405123e-01,
          3.72724801e-01, 3.90936941e-01, 3.90936941e-01, 3.90936941e-01,
          0., 2.48092651e-01, 3.90936941e-01, 3.90936941e-01,
          1.32493198e-01, 3.90936941e-01, 4.05969232e-01, 4.05969232e-01,
          3.56105506e-01, 1.01967715e-01, 4.05969232e-01, 4.05969232e-01,
          2.02786118e-01, 1.70960221e-02, 3.97589445e-01, 2.49593660e-01,
          4.03904527e-01, 4.03904527e-01, 2.05574170e-01, 2.61774927e-01,
          4.03904527e-01, 4.03904527e-01, 4.03904527e-01, 8.47757980e-02,
          1.07294386e-02, 0., 0., 0., 0., 4.74334806e-01, 6.19913995e-01,
          6.19913995e-01, 1.07294386e-02, 3.42002779e-01, 3.46118689e-01,
          3.46118689e-01, 3.46118689e-01, 3.46118689e-01, 2.02457041e-01,
          3.46118689e-01, 3.46118689e-01, 3.46118689e-01, 4.09265012e-01,
          9.54723209e-02, 3.62504750e-01, 4.09265012e-01, 4.09265012e-01,
          1.10031255e-01, 7.60969445e-02, 4.09265012e-01, 4.09265012e-01,
          2.97696084e-01, 2.80051321e-01, 3.82959366e-01, 2.40529120e-01,
          3.67884487e-01, 2.22030655e-01, 3.82959366e-01, 3.82959366e-01,
          3.82959366e-01, 4.80108798e-01, 6.88180979e-03, 2.29929015e-02,
          1.64683033e-02, 0., 2.68960446e-01, 4.80108798e-01,
          4.80108798e-01, 4.80108798e-01, 1.06377326e-01, 3.81294265e-02,
          2.93331176e-01, 6.62372589e-01, 6.62372589e-01, 0., 0.,
          3.33864540e-02, 1.26429617e-01, 2.08857745e-01, 5.21497875e-02,
          3.20575535e-01, 5.78366816e-01, 5.78366816e-01, 0., 0.,
          2.33167097e-01, 3.48900646e-01, 2.00768009e-01, 1.59457713e-01,
          4.63520974e-01, 4.63520974e-01, 4.63520974e-01, 7.35278577e-02,
          1.04810456e-02, 3.39964807e-01, 4.04954880e-01, 4.01952833e-01,
          4.78734775e-03, 3.69889177e-02, 1.58735067e-01, 4.01952833e-01,
          4.01952833e-01, 4.01952833e-01, 4.01952833e-01, 4.01952833e-01 ]
      - [ 5.47405243e-01, 5.47405243e-01, 0., 0., 0., 5.47405243e-01,
          2.05405056e-01, 3.82216275e-02, 2.27867872e-01, 4.17159230e-01,
          4.17159230e-01, 2.23407000e-01, 0., 4.17159230e-01,
          4.17159230e-01, 2.71175951e-01, 4.77137528e-02, 4.17159230e-01,
          4.07130867e-01, 1.30728513e-01, 2.49859065e-01, 4.07130867e-01,
          4.07130867e-01, 3.84238899e-01, 6.14822395e-02, 3.19329977e-01,
          4.07130867e-01, 4.27925408e-01, 2.28684209e-02, 1.30155817e-01,
          4.27925408e-01, 2.50322044e-01, 0., 4.27925408e-01,
          4.27925408e-01, 4.27925408e-01, 4.54753250e-01, 4.54753250e-01,
          4.39711481e-01, 0., 2.45557144e-01, 4.54753250e-01,
          3.23923200e-01, 4.13153656e-02, 1.21565789e-01, 4.04967844e-01,
          4.04967844e-01, 2.72957653e-01, 0., 3.09206039e-01,
          4.04967844e-01, 4.04967844e-01, 7.64562115e-02, 4.04967844e-01,
          3.32971841e-01, 3.65298092e-01, 3.94640535e-01, 3.94640535e-01,
          3.94640535e-01, 1.86648920e-01, 3.21985215e-01, 1.43182069e-01,
          3.54270756e-01, 2.25483060e-01, 1.09003291e-01, 4.38944817e-01,
          4.44435984e-01, 4.85243872e-02, 0., 4.44435984e-01,
          4.44435984e-01, 3.81102502e-01, 2.95754462e-01, 3.76930773e-01,
          3.76930773e-01, 3.13139141e-01, 2.44804502e-01, 2.74203420e-01,
          3.76930773e-01, 3.76930773e-01, 3.27541560e-01, 3.56271118e-01,
          3.56271118e-01, 3.56271118e-01, 2.16280967e-01, 2.47304022e-01,
          3.56271118e-01, 3.56271118e-01, 3.56271118e-01, 3.56271118e-01,
          3.97229165e-01, 3.97229165e-01, 3.97229165e-01, 3.28659981e-01,
          1.35033935e-01, 1.86478630e-01, 3.97229165e-01, 2.14594275e-01,
          3.97229165e-01, 1.93141237e-01, 3.93248558e-01, 3.93248558e-01,
          1.75787807e-01, 0., 3.93248558e-01, 3.93248558e-01,
          3.93248558e-01, 3.93248558e-01, 3.33255321e-01, 2.39377424e-01,
          4.11288232e-01, 4.11288232e-01, 4.11288232e-01, 0.,
          9.01496932e-02, 3.77851278e-01, 4.11288232e-01, 4.50532913e-01,
          1.27822891e-01, 1.87657312e-01, 4.50532913e-01, 4.50532913e-01,
          0., 1.57009751e-01, 3.27679724e-01, 4.50532913e-01,
          4.92058247e-01, 4.18036968e-01, 1.34452388e-01, 1.70477733e-01,
          4.92058247e-01, 4.77649011e-02, 8.53321031e-02, 1.93037704e-01,
          4.92058247e-01, 2.61655599e-01, 3.01583439e-01, 2.36301795e-01,
          0., 4.48768228e-01, 4.48768228e-01, 4.48768228e-01,
          3.95479083e-01, 1.40285999e-01 ]
      - [ 4.46174860e-01, 4.46174860e-01, 4.46174860e-01, 0.,
          1.66012883e-01, 1.38530493e-01, 3.72404963e-01, 1.17552720e-01,
          4.46174860e-01, 4.39678192e-01, 4.39678192e-01, 9.29739103e-02,
          0., 4.39678192e-01, 4.39678192e-01, 1.42512813e-01,
          8.32278188e-03, 4.39678192e-01, 3.86079520e-01, 2.24623695e-01,
          1.96405813e-01, 3.86079520e-01, 3.86079520e-01, 3.86079520e-01,
          1.12993546e-01, 3.86079520e-01, 3.86079520e-01, 1.78536564e-01,
          7.41263479e-02, 3.28565568e-01, 4.60598469e-01, 3.83423306e-02,
          0., 4.60598469e-01, 4.60598469e-01, 4.60598469e-01,
          3.72675866e-01, 3.72675866e-01, 3.72675866e-01, 0.,
          3.72675866e-01, 3.72675866e-01, 3.72675866e-01, 2.09015563e-01,
          3.45348299e-01, 4.21418101e-01, 4.29438591e-01, 2.55980521e-01,
          0., 4.29438591e-01, 4.29438591e-01, 4.25424844e-01,
          7.79817998e-02, 1.10774636e-01, 7.60385916e-02, 4.12529379e-01,
          4.22828048e-01, 4.22828048e-01, 4.22828048e-01, 4.22828048e-01,
          1.73734874e-01, 2.19709158e-01, 1.61937088e-01, 0.,
          2.71195501e-01, 4.59208488e-01, 4.59208488e-01, 6.39675418e-03,
          0., 4.59208488e-01, 4.59208488e-01, 2.79885143e-01,
          2.45516703e-01, 2.51793176e-01, 4.03024435e-01, 4.03024435e-01,
          2.18178347e-01, 1.12027489e-01, 4.03024435e-01, 4.03024435e-01,
          4.03024435e-01, 4.68993813e-01, 0., 6.39045611e-02,
          4.48311776e-01, 3.48878205e-01, 2.73062363e-02, 8.90009329e-02,
          4.68993813e-01, 4.68993813e-01, 4.67672110e-01, 4.67672110e-01,
          4.67672110e-01, 0., 1.44472774e-02, 0., 0., 3.46772611e-01,
          4.67672110e-01, 3.18132825e-02, 4.60707486e-01, 4.60707486e-01,
          0., 0., 4.84552123e-02, 4.60707486e-01, 4.60707486e-01,
          3.78196746e-01, 1.79122120e-01, 3.14277373e-02, 3.84047121e-01,
          4.94587868e-01, 4.94587868e-01, 0., 0., 3.91793787e-01,
          4.14438188e-01, 3.70231599e-01, 8.91323909e-02, 4.12519842e-01,
          4.12519842e-01, 4.12519842e-01, 0., 0., 4.12519842e-01,
          4.12519842e-01, 4.55823630e-01, 1.66910291e-01, 3.00623327e-01,
          1.73345685e-01, 4.55823630e-01, 2.55621910e-01, 3.64376828e-02,
          3.96445453e-01, 4.55823630e-01, 2.74578691e-01, 3.64289492e-01,
          3.77050132e-01, 0., 3.77050132e-01, 3.77050132e-01,
          3.77050132e-01, 3.47897887e-01, 3.13740045e-01 ]
      - [ 4.18337435e-01, 4.18337435e-01, 4.18337435e-01, 1.25119388e-01,
          4.18337435e-01, 2.09189802e-01, 2.71292061e-01, 8.04910138e-02,
          3.95351410e-01, 3.99873734e-01, 1.06131896e-01, 1.53767943e-01,
          3.99873734e-01, 3.99873734e-01, 4.12625559e-02, 3.99873734e-01,
          3.99873734e-01, 3.99873734e-01, 1.56916991e-01, 0.,
          4.75463271e-02, 3.33553344e-01, 6.65324256e-02, 0.,
          5.32950819e-01, 5.32950819e-01, 5.32950819e-01, 7.01493204e-01,
          0., 0., 0., 0., 0., 0., 0., 7.01493204e-01, 1.80325061e-01,
          4.24946696e-01, 4.24946696e-01, 4.24946696e-01, 1.81816891e-01,
          1.09148309e-01, 4.24946696e-01, 4.24946696e-01, 1.23970553e-01,
          3.24597210e-02, 1.13320351e-02, 2.94749260e-01, 4.47897583e-01,
          4.47897583e-01, 3.20466422e-02, 4.47897583e-01, 4.47897583e-01,
          3.22476298e-01, 2.62841254e-01, 0., 2.38743663e-01,
          5.19589186e-01, 2.38219976e-01, 0., 4.53804843e-02,
          5.19589186e-01, 5.19589186e-01, 1.19557172e-01, 0.,
          8.27615410e-02, 5.62274635e-01, 1.57428131e-01, 0., 0.,
          5.62274635e-01, 5.62274635e-01, 1.35505414e-02, 3.07978243e-01,
          4.15634781e-01, 4.15634781e-01, 2.85725802e-01, 0.,
          3.58001947e-01, 4.15634781e-01, 4.15634781e-01, 4.35725987e-01,
          1.17571270e-02, 1.61105052e-01, 4.35725987e-01, 4.35725987e-01,
          0., 1.42368510e-01, 4.35725987e-01, 4.35725987e-01,
          3.97112817e-01, 3.36183846e-01, 2.62654632e-01, 3.97112817e-01,
          3.97112817e-01, 1.58191577e-01, 2.25494523e-02, 3.97112817e-01,
          3.97112817e-01, 3.51861030e-01, 2.86135584e-01, 3.51861030e-01,
          3.51861030e-01, 2.96963841e-01, 3.51861030e-01, 2.89112926e-01,
          3.51861030e-01, 3.51861030e-01, 5.68399839e-02, 3.32309529e-02,
          4.54739749e-01, 5.76166332e-01, 5.76166332e-01, 0., 0.,
          2.67906547e-01, 2.17747837e-01, 3.41669083e-01, 0.,
          2.02448234e-01, 4.76276606e-01, 4.76276606e-01, 0., 0.,
          3.96234483e-01, 4.76276606e-01, 4.78816241e-01, 1.62009493e-01,
          3.90485749e-02, 2.05925912e-01, 4.78816241e-01, 4.78816241e-01,
          8.50699022e-02, 2.72655282e-02, 4.78816241e-01, 3.39926302e-01,
          2.56372809e-01, 1.36452496e-01, 4.41066325e-02, 5.42766511e-01,
          5.42766511e-01, 3.78609687e-01, 6.69693053e-02, 2.36044407e-01 ]
      - [ 4.88773018e-01, 4.88773018e-01, 1.07825287e-01, 9.12791193e-02,
          1.52575672e-01, 4.88773018e-01, 7.20164627e-02, 0.,
          4.79580194e-01, 4.42266136e-01, 4.42266136e-01, 7.64428303e-02,
          2.42362805e-02, 4.42266136e-01, 4.42266136e-01, 1.05615936e-01,
          0., 4.42266136e-01, 4.02367502e-01, 4.02367502e-01,
          3.22284549e-01, 2.27070615e-01, 4.02367502e-01, 1.50065795e-01,
          9.23803449e-02, 4.02367502e-01, 4.02367502e-01, 1.61940917e-01,
          3.28491852e-02, 1.62026018e-01, 4.45322692e-01, 3.55235368e-01,
          0., 1.57640129e-01, 5.43901324e-01, 5.43901324e-01,
          4.25354153e-01, 4.25354153e-01, 4.25354153e-01, 1.91719845e-01,
          3.74583714e-02, 4.25354153e-01, 4.25354153e-01, 2.05425337e-01,
          1.03735603e-01, 2.88567483e-01, 4.37245369e-01, 4.37245369e-01,
          1.35100797e-01, 1.97704583e-01, 4.37245369e-01, 4.37245369e-01,
          2.49583334e-01, 1.67320028e-01, 1.58211410e-01, 4.14628506e-01,
          4.14628506e-01, 2.18072191e-01, 4.14628506e-01, 3.83193493e-01,
          4.14628506e-01, 2.92729229e-01, 5.54692596e-02, 6.25863075e-02,
          1.47299200e-01, 3.99273843e-01, 3.99273843e-01, 3.99273843e-01,
          1.17810987e-01, 3.99273843e-01, 3.99273843e-01, 3.99273843e-01,
          1.38808452e-02, 2.66088903e-01, 4.59453166e-01, 4.59453166e-01,
          6.48537045e-03, 2.81814151e-02, 2.81406939e-01, 4.59453166e-01,
          4.59453166e-01, 2.19399109e-01, 2.16171414e-01, 4.24022019e-01,
          4.24022019e-01, 3.67242098e-02, 2.40039621e-02, 4.24022019e-01,
          4.24022019e-01, 4.24022019e-01, 3.71764123e-01, 3.71764123e-01,
          3.71764123e-01, 1.54580213e-02, 1.69076920e-01, 3.71764123e-01,
          3.71764123e-01, 3.71764123e-01, 3.71764123e-01, 3.64818931e-01,
